{"learner":{"attributes":{"scikit_learn":"{\"_estimator_type\": \"classifier\"}"},"feature_names":["Count","Gender","Age","Under 30","Senior Citizen","Married","Dependents","Number of Dependents","City","Zip Code","Latitude","Longitude","Referred a Friend","Number of Referrals","Tenure in Months","Phone Service","Avg Monthly Long Distance Charges","Multiple Lines","Internet Service","Avg Monthly GB Download","Online Security","Online Backup","Device Protection Plan","Premium Tech Support","Streaming TV","Streaming Movies","Streaming Music","Unlimited Data","Paperless Billing","Monthly Charge","Total Charges","Total Refunds","Total Extra Data Charges","Total Long Distance Charges","Total Revenue","Satisfaction Score","CLTV","Partner","Tenure","Monthly Charges","Country_United States","State_California","Quarter_Q3","Offer_Offer A","Offer_Offer B","Offer_Offer C","Offer_Offer D","Offer_Offer E","Internet Type_Cable","Internet Type_DSL","Internet Type_Fiber Optic","Contract_Month-to-Month","Contract_One Year","Contract_Two Year","Payment Method_Bank Withdrawal","Payment Method_Credit Card","Payment Method_Mailed Check","Device Protection_No","Device Protection_No internet service","Device Protection_Yes","Tech Support_No","Tech Support_No internet service","Tech Support_Yes","Lat","Long","SeniorCitizen_Dependents","Tenure_Age_Ratio","AvgMonthlyGB_StreamServices","MonthlyCharge_TotalCharges_Ratio","AvgMonthlyGB_Tenure","Total_Services_Used","Streaming_Services_Count","Internet_Phone_Bundle","Tenure_in_Years","Digital_Payments","Traditional_Payments","Monthly_Charges_Scaled","Revenue_Cluster_Low","Revenue_Cluster_Medium","Revenue_Cluster_High","Refund_to_Charges_Ratio","Extra_Data_Usage_Cost_Proportion","Lifetime_Value_per_Month","Monthly_Charges_18.25-35.5","Monthly_Charges_35.51-70.35","Monthly_Charges_70.36-89.85","Monthly_Charges_89.86-118.75","Lifetime_Value_43-85.918","Lifetime_Value_85.919-137.263","Lifetime_Value_137.264-460.95","Lifetime_Value_460.951-5996"],"feature_types":["int","int","int","int","int","int","int","int","int","int","float","float","int","int","int","int","float","int","int","int","int","int","int","int","int","int","int","int","int","float","float","float","int","float","float","int","int","int","int","float","int","int","int","int","int","int","int","int","int","int","int","int","int","int","int","int","int","int","int","int","int","int","int","float","float","int","float","int","float","int","int","int","int","float","int","int","int","int","int","int","float","float","int","int","int","int","int","int","int","int","int"],"gradient_booster":{"model":{"gbtree_model_param":{"num_parallel_tree":"1","num_trees":"100"},"iteration_indptr":[0,1,2,3,4,5,6,7,8,9,10,11,12,13,14,15,16,17,18,19,20,21,22,23,24,25,26,27,28,29,30,31,32,33,34,35,36,37,38,39,40,41,42,43,44,45,46,47,48,49,50,51,52,53,54,55,56,57,58,59,60,61,62,63,64,65,66,67,68,69,70,71,72,73,74,75,76,77,78,79,80,81,82,83,84,85,86,87,88,89,90,91,92,93,94,95,96,97,98,99,100],"tree_info":[0,0,0,0,0,0,0,0,0,0,0,0,0,0,0,0,0,0,0,0,0,0,0,0,0,0,0,0,0,0,0,0,0,0,0,0,0,0,0,0,0,0,0,0,0,0,0,0,0,0,0,0,0,0,0,0,0,0,0,0,0,0,0,0,0,0,0,0,0,0,0,0,0,0,0,0,0,0,0,0,0,0,0,0,0,0,0,0,0,0,0,0,0,0,0,0,0,0,0,0],"trees":[{"base_weights":[-1.720942E-1,1.2753053E0,-1.0146251E0,-6.8325585E-1,-3.8995093E-1,-2.3360452E-1,-3.7547168E-1,-8.6160624E-1,6.725944E-1,-4.012752E-1,-1.0385251E0,1.2815015E0,-1.052157E0,-2.7179557E-1,8.803347E-2,-3.312834E-1,2.2124702E-2,1.6925855E-2,5.489818E-1,-1.0823479E-1,-3.4381557E-1],"categories":[],"categories_nodes":[],"categories_segments":[],"categories_sizes":[],"default_left":[0,0,0,0,0,0,0,0,0,0,0,0,0,0,0,0,0,0,0,0,0],"id":0,"left_children":[1,-1,3,5,-1,7,-1,9,11,13,15,17,19,-1,-1,-1,-1,-1,-1,-1,-1],"loss_changes":[2.5963826E3,0E0,5.4407166E1,6.9405876E1,0E0,8.793475E1,0E0,7.0029526E0,6.792551E1,9.705921E0,4.8485107E0,3.1679298E1,6.9595337E-1,0E0,0E0,0E0,0E0,0E0,0E0,0E0,0E0],"parents":[2147483647,0,0,2,2,3,3,5,5,7,7,8,8,9,9,10,10,11,11,12,12],"right_children":[2,-1,4,6,-1,8,-1,10,12,14,16,18,20,-1,-1,-1,-1,-1,-1,-1,-1],"split_conditions":[3E0,1.2753053E0,4E0,1E0,-3.8995093E-1,7.375E1,-3.7547168E-1,1.7253E2,3E0,1E0,7.015E1,1E0,1.8153E3,-2.7179557E-1,8.803347E-2,-3.312834E-1,2.2124702E-2,1.6925855E-2,5.489818E-1,-1.0823479E-1,-3.4381557E-1],"split_indices":[35,0,35,20,0,29,0,33,13,54,29,51,30,0,0,0,0,0,0,0,0],"split_type":[0,0,0,0,0,0,0,0,0,0,0,0,0,0,0,0,0,0,0,0,0],"sum_hessian":[6.945572E2,1.1048554E2,5.8407166E2,2.717444E2,3.1232727E2,1.5249866E2,1.1924573E2,9.010471E1,6.239394E1,2.5922983E1,6.418173E1,4.6303814E1,1.6090128E1,1.4838674E1,1.1084311E1,6.0606148E1,3.575584E0,1.4659894E1,3.1643919E1,2.5029087E0,1.3587219E1],"tree_param":{"num_deleted":"0","num_feature":"91","num_nodes":"21","size_leaf_vector":"1"}},{"base_weights":[-2.2198899E-1,5.7196313E-1,-8.963659E-1,-5.805004E-1,-3.6029336E-1,-2.0700307E-1,-1.1443775E0,-7.1569073E-1,4.1521716E-1,-1.1536121E0,-4.727482E-1,6.5651053E-1,-7.919564E-1,7.728327E-1,-9.3305784E-1,-7.997873E-1,-3.5485795E-1,-1.8136066E-1,-3.138981E-2,-1.4796767E-1,4.9411163E-1,-1.2605722E-1,-2.8785148E-1,2.9541683E-1,-1.5991043E-1,-8.941668E-2,-3.0967638E-1,8.64931E-2,-2.9019848E-1],"categories":[],"categories_nodes":[],"categories_segments":[],"categories_sizes":[],"default_left":[0,0,0,0,0,0,0,0,0,0,0,0,0,0,0,0,0,0,0,0,0,0,0,0,0,0,0,0,0],"id":1,"left_children":[1,-1,3,5,-1,7,9,11,13,15,17,19,21,23,25,27,-1,-1,-1,-1,-1,-1,-1,-1,-1,-1,-1,-1,-1],"loss_changes":[9.2588086E2,0E0,4.6410736E1,5.0792564E1,0E0,4.6817E1,5.206299E-2,9.021004E0,3.2902077E1,3.0052185E-2,8.232236E-2,6.305969E0,4.4184837E0,1.5272484E1,6.022043E-1,2.1546445E0,0E0,0E0,0E0,0E0,0E0,0E0,0E0,0E0,0E0,0E0,0E0,0E0,0E0],"parents":[2147483647,0,0,2,2,3,3,5,5,6,6,7,7,8,8,9,9,10,10,11,11,12,12,13,13,14,14,15,15],"right_children":[2,-1,4,6,-1,8,10,12,14,16,18,20,22,24,26,28,-1,-1,-1,-1,-1,-1,-1,-1,-1,-1,-1,-1,-1],"split_conditions":[3E0,5.7196313E-1,4E0,1E0,-3.6029336E-1,7.49E1,4.939E1,3.2984394E1,3E0,3.3674583E1,4.1E1,9.2109E4,1.826E2,1E0,1.8153E3,-1.1772667E2,-3.5485795E-1,-1.8136066E-1,-3.138981E-2,-1.4796767E-1,4.9411163E-1,-1.2605722E-1,-2.8785148E-1,2.9541683E-1,-1.5991043E-1,-8.941668E-2,-3.0967638E-1,8.64931E-2,-2.9019848E-1],"split_indices":[35,0,35,20,0,29,16,10,13,10,2,9,33,6,30,11,0,0,0,0,0,0,0,0,0,0,0,0,0],"split_type":[0,0,0,0,0,0,0,0,0,0,0,0,0,0,0,0,0,0,0,0,0,0,0,0,0,0,0,0,0],"sum_hessian":[6.428279E2,1.5422408E2,4.8860385E2,2.4129755E2,2.4730629E2,1.459748E2,9.532276E1,8.0231995E1,6.574279E1,9.332198E1,2.0007777E0,3.8238375E0,7.640816E1,5.2298084E1,1.3444709E1,9.289325E0,8.403266E1,1.0003889E0,1.0003889E0,2.0020525E0,1.8217851E0,2.482748E1,5.1580677E1,4.520848E1,7.0896025E0,2.3575664E0,1.1087143E1,1.1433015E0,8.146023E0],"tree_param":{"num_deleted":"0","num_feature":"91","num_nodes":"29","size_leaf_vector":"1"}},{"base_weights":[-2.095494E-1,4.523389E-1,-8.025309E-1,-4.958303E-1,-3.4128952E-1,-1.7552257E-1,-1.069027E0,1.0482647E-1,-9.73852E-1,-3.2742697E-1,-5.914492E-1,-4.2956963E-1,4.9603364E-1,-1.0439603E0,4.5914613E-2,4.497376E-2,-2.6309487E-1,2.4060326E-2,-2.3390174E-1,6.654595E-2,3.6298138E-1,-3.2797432E-1,-4.226577E-2],"categories":[],"categories_nodes":[],"categories_segments":[],"categories_sizes":[],"default_left":[0,0,0,0,0,0,0,0,0,0,0,0,0,0,0,0,0,0,0,0,0,0,0],"id":2,"left_children":[1,-1,3,5,-1,7,9,11,13,-1,15,17,19,21,-1,-1,-1,-1,-1,-1,-1,-1,-1],"loss_changes":[5.552131E2,0E0,4.1064148E1,3.8965683E1,0E0,3.098849E1,1.700592E-1,2.1754211E1,3.0011215E0,0E0,1.3166121E0,7.9304953E0,1.146818E1,1.3586769E0,0E0,0E0,0E0,0E0,0E0,0E0,0E0,0E0,0E0],"parents":[2147483647,0,0,2,2,3,3,5,5,6,6,7,7,8,8,10,10,11,11,12,12,13,13],"right_children":[2,-1,4,6,-1,8,10,12,14,-1,16,18,20,22,-1,-1,-1,-1,-1,-1,-1,-1,-1],"split_conditions":[3E0,4.523389E-1,4E0,1E0,-3.4128952E-1,2E0,1E0,7.015E1,2.7671E3,-3.2742697E-1,5.915E1,1.9164E2,1E0,1.0395E2,4.5914613E-2,4.497376E-2,-2.6309487E-1,2.4060326E-2,-2.3390174E-1,6.654595E-2,3.6298138E-1,-3.2797432E-1,-4.226577E-2],"split_indices":[35,0,35,20,0,13,46,29,33,0,29,33,12,29,0,0,0,0,0,0,0,0,0],"split_type":[0,0,0,0,0,0,0,0,0,0,0,0,0,0,0,0,0,0,0,0,0,0,0],"sum_hessian":[5.43018E2,1.3897806E2,4.0403995E2,2.122542E2,1.9178575E2,1.3700224E2,7.525194E1,1.02038216E2,3.496403E1,7.06533E1,4.5986433E0,4.308511E1,5.8953106E1,3.2985493E1,1.9785392E0,1.410746E0,3.1878974E0,1.7856255E1,2.5228857E1,4.3539936E1,1.5413171E1,3.1078716E1,1.9067757E0],"tree_param":{"num_deleted":"0","num_feature":"91","num_nodes":"23","size_leaf_vector":"1"}},{"base_weights":[-1.9465125E-1,3.9554796E-1,-7.186666E-1,-4.2026457E-1,-3.2837883E-1,-1.4581954E-1,-1.0075942E0,9.735385E-2,-9.292934E-1,-5.6112015E-1,-1.0498508E0,-3.7212655E-1,4.3492067E-1,6.139624E-1,-1.0731918E0,8.328396E-2,-2.7262005E-1,-7.519058E-2,-3.2015607E-1,-2.1005762E-1,6.333639E-2,3.8920686E-2,4.7424948E-1,-1.7564856E-1,4.3638065E-1,-4.6470944E-2,-3.3072862E-1],"categories":[],"categories_nodes":[],"categories_segments":[],"categories_sizes":[],"default_left":[0,0,0,0,0,0,0,0,0,0,0,0,0,0,0,0,0,0,0,0,0,0,0,0,0,0,0],"id":3,"left_children":[1,-1,3,5,-1,7,9,11,13,15,17,19,21,23,25,-1,-1,-1,-1,-1,-1,-1,-1,-1,-1,-1,-1],"loss_changes":[3.5829437E2,0E0,3.7164215E1,3.0253792E1,0E0,2.4802471E1,5.4089737E-1,1.5992582E1,7.5026493E0,2.3884032E0,4.7471237E-1,8.245571E0,2.0277695E1,4.1433525E0,5.95829E-1,0E0,0E0,0E0,0E0,0E0,0E0,0E0,0E0,0E0,0E0,0E0,0E0],"parents":[2147483647,0,0,2,2,3,3,5,5,6,6,7,7,8,8,9,9,10,10,11,11,12,12,13,13,14,14],"right_children":[2,-1,4,6,-1,8,10,12,14,16,18,20,22,24,26,-1,-1,-1,-1,-1,-1,-1,-1,-1,-1,-1,-1],"split_conditions":[3E0,3.9554796E-1,4E0,1E0,-3.2837883E-1,1E0,3.3674583E1,1E0,9.0232E4,-1.172914E2,2.203E3,6.46E2,6.4E1,5.775E1,2.203E3,8.328396E-2,-2.7262005E-1,-7.519058E-2,-3.2015607E-1,-2.1005762E-1,6.333639E-2,3.8920686E-2,4.7424948E-1,-1.7564856E-1,4.3638065E-1,-4.6470944E-2,-3.3072862E-1],"split_indices":[35,0,35,20,0,6,10,51,9,11,36,69,2,29,36,0,0,0,0,0,0,0,0,0,0,0,0],"split_type":[0,0,0,0,0,0,0,0,0,0,0,0,0,0,0,0,0,0,0,0,0,0,0,0,0,0,0],"sum_hessian":[4.4967715E2,1.1527975E2,3.343974E2,1.8760213E2,1.4679527E2,1.2870816E2,5.8893963E1,9.889044E1,2.9817722E1,6.3266716E0,5.256729E1,4.132047E1,5.756997E1,2.2645564E0,2.7553165E1,1.9127929E0,4.413879E0,1.4442167E0,5.1123074E1,2.6317108E1,1.5003364E1,4.634132E1,1.122865E1,1.0581949E0,1.2063614E0,1.0445224E0,2.6508642E1],"tree_param":{"num_deleted":"0","num_feature":"91","num_nodes":"27","size_leaf_vector":"1"}},{"base_weights":[-1.7950216E-1,3.626977E-1,-6.401906E-1,-3.532707E-1,-3.1918108E-1,-1.1058466E-1,-9.492521E-1,7.4581206E-2,-8.3719635E-1,7.419347E-2,-9.8445207E-1,-1.2516157E-1,7.0612603E-1,-9.45364E-2,-9.372081E-1,-3.2663187E-1,-1.0170681E0,1.2541635E-1,-1.1146826E-1,3.635045E-1,-1.9909784E-1,2.619941E-1,-2.1714658E-1,-9.423717E-2,-3.062944E-1,-2.0675196E-1,9.502711E-2,-2.8305342E-2,-3.1127962E-1],"categories":[],"categories_nodes":[],"categories_segments":[],"categories_sizes":[],"default_left":[0,0,0,0,0,0,0,0,0,0,0,0,0,0,0,0,0,0,0,0,0,0,0,0,0,0,0,0,0],"id":4,"left_children":[1,-1,3,5,-1,7,9,11,13,-1,15,17,19,21,23,25,27,-1,-1,-1,-1,-1,-1,-1,-1,-1,-1,-1,-1],"loss_changes":[2.3844865E2,0E0,3.3624146E1,2.4228937E1,0E0,1.6300447E1,2.2884483E0,1.2336929E1,1.7379417E0,0E0,6.840477E-1,1.0142601E1,1.7065033E1,3.0871162E0,8.047123E-1,1.0838234E0,7.4804306E-1,0E0,0E0,0E0,0E0,0E0,0E0,0E0,0E0,0E0,0E0,0E0,0E0],"parents":[2147483647,0,0,2,2,3,3,5,5,6,6,7,7,8,8,10,10,11,11,12,12,13,13,14,14,15,15,16,16],"right_children":[2,-1,4,6,-1,8,10,12,14,-1,16,18,20,22,24,26,28,-1,-1,-1,-1,-1,-1,-1,-1,-1,-1,-1,-1],"split_conditions":[3E0,3.626977E-1,4E0,2E0,-3.1918108E-1,1E0,3.2E1,1E0,3.3674583E1,7.419347E-2,6.1E1,9.213E4,1E0,-1.1725335E2,-1.22286224E2,8.54671E3,2.296E3,1.2541635E-1,-1.1146826E-1,3.635045E-1,-1.9909784E-1,2.619941E-1,-2.1714658E-1,-9.423717E-2,-3.062944E-1,-2.0675196E-1,9.502711E-2,-2.8305342E-2,-3.1127962E-1],"split_indices":[35,0,35,13,0,20,8,12,10,0,82,9,6,11,11,34,36,0,0,0,0,0,0,0,0,0,0,0,0],"split_type":[0,0,0,0,0,0,0,0,0,0,0,0,0,0,0,0,0,0,0,0,0,0,0,0,0,0,0,0,0],"sum_hessian":[3.7056213E2,9.191377E1,2.7864835E2,1.6724199E2,1.1140635E2,1.196895E2,4.7552498E1,9.60978E1,2.3591696E1,1.1867E0,4.6365795E1,7.361646E1,2.248134E1,3.03083E0,2.0560865E1,2.7106297E0,4.3655167E1,2.275461E1,5.086185E1,1.6505114E1,5.9762263E0,1.0413826E0,1.9894474E0,2.999681E0,1.7561186E1,1.6881934E0,1.0224363E0,1.071984E0,4.2583183E1],"tree_param":{"num_deleted":"0","num_feature":"91","num_nodes":"29","size_leaf_vector":"1"}},{"base_weights":[-1.647067E-1,3.4160343E-1,-5.6488705E-1,-2.9493853E-1,-3.1230748E-1,-9.180788E-2,-9.07426E-1,8.816975E-2,-7.276122E-1,-9.5008755E-1,-2.4791735E-1,2.0003115E-1,-8.8045555E-1,7.246486E-2,-9.3047184E-1,-4.648068E-1,-9.953117E-1,1.15824364E-1,-1.9641659E-1,1.8852358E-1,-4.801403E-3,-2.8978682E-1,-2.5265472E-2,-2.4569711E-1,2.4372351E-1,-3.203483E-1,1.4413236E-1,-2.4151045E-1,1.0908172E-1,-3.0756512E-1,-9.8345414E-2],"categories":[],"categories_nodes":[],"categories_segments":[],"categories_sizes":[],"default_left":[0,0,0,0,0,0,0,0,0,0,0,0,0,0,0,0,0,0,0,0,0,0,0,0,0,0,0,0,0,0,0],"id":5,"left_children":[1,-1,3,5,-1,7,9,11,13,15,17,19,21,23,25,27,29,-1,-1,-1,-1,-1,-1,-1,-1,-1,-1,-1,-1,-1,-1],"loss_changes":[1.612387E2,0E0,3.0057243E1,1.8847382E1,0E0,1.32666E1,8.2749367E-1,1.0015875E1,4.2162476E0,3.0843353E-1,1.1938022E0,7.619727E0,5.713115E-1,4.687835E0,4.478897E0,1.6656661E0,2.879696E-1,0E0,0E0,0E0,0E0,0E0,0E0,0E0,0E0,0E0,0E0,0E0,0E0,0E0,0E0],"parents":[2147483647,0,0,2,2,3,3,5,5,6,6,7,7,8,8,9,9,10,10,11,11,12,12,13,13,14,14,15,15,16,16],"right_children":[2,-1,4,6,-1,8,10,12,14,16,18,20,22,24,26,28,30,-1,-1,-1,-1,-1,-1,-1,-1,-1,-1,-1,-1,-1,-1],"split_conditions":[3E0,3.4160343E-1,4E0,1E0,-3.1230748E-1,1E0,1E0,4E0,7.1E1,3.36069E1,5.915E1,9.223E4,1.0085E2,1E0,6.211E3,1.34E3,9.601E4,1.15824364E-1,-1.9641659E-1,1.8852358E-1,-4.801403E-3,-2.8978682E-1,-2.5265472E-2,-2.4569711E-1,2.4372351E-1,-3.203483E-1,1.4413236E-1,-2.4151045E-1,1.0908172E-1,-3.0756512E-1,-9.8345414E-2],"split_indices":[35,0,35,20,0,53,46,13,82,10,29,9,29,28,36,69,9,0,0,0,0,0,0,0,0,0,0,0,0,0,0],"split_type":[0,0,0,0,0,0,0,0,0,0,0,0,0,0,0,0,0,0,0,0,0,0,0,0,0,0,0,0,0,0,0],"sum_hessian":[3.0689658E2,7.165883E1,2.3523775E2,1.5115767E2,8.4080086E1,1.1437518E2,3.6782486E1,8.981305E1,2.4562128E1,3.4133873E1,2.6486123E0,8.1226166E1,8.586888E0,5.098088E0,1.9464039E1,3.8712254E0,3.0262646E1,1.055138E0,1.5934743E0,2.659054E1,5.4635624E1,7.5617523E0,1.0251365E0,2.2638628E0,2.8342252E0,1.7958866E1,1.5051732E0,2.764194E0,1.1070313E0,2.8452005E1,1.8106403E0],"tree_param":{"num_deleted":"0","num_feature":"91","num_nodes":"31","size_leaf_vector":"1"}},{"base_weights":[-1.5154375E-1,3.2701838E-1,-4.9344176E-1,-2.471431E-1,-3.0687124E-1,-7.2952405E-2,-8.354851E-1,7.2743155E-2,-6.9681394E-1,9.1195196E-2,-8.855483E-1,-4.9517922E-2,8.408788E-1,-8.629278E-1,1.1373947E-1,-2.4518014E-1,-9.272176E-1,-6.793217E-2,1.8086997E-1,3.822213E-1,-5.922329E-2,-2.8308237E-1,-4.0546775E-2,-2.0071253E-1,2.1602558E-1,-1.773431E-1,7.902902E-2,-2.3285825E-2,-2.8709155E-1],"categories":[],"categories_nodes":[],"categories_segments":[],"categories_sizes":[],"default_left":[0,0,0,0,0,0,0,0,0,0,0,0,0,0,0,0,0,0,0,0,0,0,0,0,0,0,0,0,0],"id":6,"left_children":[1,-1,3,5,-1,7,9,11,13,-1,15,17,19,21,23,25,27,-1,-1,-1,-1,-1,-1,-1,-1,-1,-1,-1,-1],"loss_changes":[1.1024242E2,0E0,2.6261429E1,1.4295635E1,0E0,9.974594E0,2.089243E0,8.438981E0,2.8940535E0,0E0,5.950031E-1,9.149408E0,5.7988253E0,8.9118767E-1,2.5774407E0,7.2624594E-1,6.4809036E-1,0E0,0E0,0E0,0E0,0E0,0E0,0E0,0E0,0E0,0E0,0E0,0E0],"parents":[2147483647,0,0,2,2,3,3,5,5,6,6,7,7,8,8,10,10,11,11,12,12,13,13,14,14,15,15,16,16],"right_children":[2,-1,4,6,-1,8,10,12,14,-1,16,18,20,22,24,26,28,-1,-1,-1,-1,-1,-1,-1,-1,-1,-1,-1,-1],"split_conditions":[3E0,3.2701838E-1,4E0,2E0,-3.0687124E-1,1E0,3.2E1,6.8E1,9.5653E4,9.1195196E-2,6.1E1,1E0,3.9E1,1.041E2,6.71E2,2.38952E3,2.317E3,-6.793217E-2,1.8086997E-1,3.822213E-1,-5.922329E-2,-2.8308237E-1,-4.0546775E-2,-2.0071253E-1,2.1602558E-1,-1.773431E-1,7.902902E-2,-2.3285825E-2,-2.8709155E-1],"split_indices":[35,0,35,13,0,53,8,2,9,0,82,12,14,29,8,33,36,0,0,0,0,0,0,0,0,0,0,0,0],"split_type":[0,0,0,0,0,0,0,0,0,0,0,0,0,0,0,0,0,0,0,0,0,0,0,0,0,0,0,0,0],"sum_hessian":[2.5743097E2,5.511008E1,2.023209E2,1.3908652E2,6.3234383E1,1.08181244E2,3.0905275E1,8.84161E1,1.9765144E1,1.0872304E0,2.9818045E1,7.708269E1,1.1333408E1,1.6349817E1,3.4153275E0,2.2423224E0,2.7575724E1,6.1152325E1,1.59303665E1,7.836712E0,3.4966967E0,1.4451202E1,1.8986157E0,1.4456369E0,1.9696906E0,1.2379676E0,1.0043547E0,1.0551717E0,2.6520552E1],"tree_param":{"num_deleted":"0","num_feature":"91","num_nodes":"29","size_leaf_vector":"1"}},{"base_weights":[-1.3397819E-1,3.1623626E-1,-4.2253074E-1,-1.998829E-1,-3.0225772E-1,-3.9732125E-2,-8.2247573E-1,9.873215E-2,-7.087617E-1,-2.545218E-1,-9.078698E-1,-2.9801276E-1,3.360911E-1,2.1045557E-1,-9.0446407E-1,1.3150254E-1,-2.1959306E-1,-1.4152069E-2,-9.462567E-1,-1.8275693E-1,8.1908606E-2,-2.0832248E-1,1.341429E-1,-5.2747235E-2,-2.9833144E-1,-2.9652327E-1,-6.741581E-2],"categories":[],"categories_nodes":[],"categories_segments":[],"categories_sizes":[],"default_left":[0,0,0,0,0,0,0,0,0,0,0,0,0,0,0,0,0,0,0,0,0,0,0,0,0,0,0],"id":7,"left_children":[1,-1,3,5,-1,7,9,11,13,15,17,19,21,-1,23,-1,-1,-1,25,-1,-1,-1,-1,-1,-1,-1,-1],"loss_changes":[7.542957E1,0E0,2.2812784E1,1.2852884E1,0E0,9.689529E0,1.0488567E0,8.284864E0,5.5826597E0,1.9216005E0,7.004509E-1,6.0415554E0,6.5874414E0,0E0,8.859253E-1,0E0,0E0,0E0,4.3292618E-1,0E0,0E0,0E0,0E0,0E0,0E0,0E0,0E0],"parents":[2147483647,0,0,2,2,3,3,5,5,6,6,7,7,8,8,9,9,10,10,11,11,12,12,14,14,18,18],"right_children":[2,-1,4,6,-1,8,10,12,14,16,18,20,22,-1,24,-1,-1,-1,26,-1,-1,-1,-1,-1,-1,-1,-1],"split_conditions":[3E0,3.1623626E-1,4E0,1E0,-3.0225772E-1,1E0,3.3674583E1,1E0,9.0232E4,-1.172914E2,2.258E3,2.2E1,-1.22411E2,2.1045557E-1,9.1789E4,1.3150254E-1,-2.1959306E-1,-1.4152069E-2,9.601E4,-1.8275693E-1,8.1908606E-2,-2.0832248E-1,1.341429E-1,-5.2747235E-2,-2.9833144E-1,-2.9652327E-1,-6.741581E-2],"split_indices":[35,0,35,20,0,6,10,54,9,11,36,67,11,0,9,0,0,0,9,0,0,0,0,0,0,0,0],"split_type":[0,0,0,0,0,0,0,0,0,0,0,0,0,0,0,0,0,0,0,0,0,0,0,0,0,0,0],"sum_hessian":[2.1772179E2,4.2026577E1,1.756952E2,1.2823206E2,4.746316E1,1.028417E2,2.5390354E1,8.591327E1,1.692843E1,3.8388453E0,2.155151E1,3.2063564E1,5.3849705E1,1.7479129E0,1.5180518E1,1.5995555E0,2.23929E0,1.0153186E0,2.053619E1,2.0710829E1,1.1352735E1,4.727563E0,4.912214E1,1.993186E0,1.3187332E1,1.9053185E1,1.4830055E0],"tree_param":{"num_deleted":"0","num_feature":"91","num_nodes":"27","size_leaf_vector":"1"}},{"base_weights":[-1.2234992E-1,3.0767083E-1,-3.628719E-1,-1.6894233E-1,-2.9800484E-1,-3.9711002E-2,-7.662631E-1,6.3588545E-2,-6.235367E-1,-8.355432E-1,-1.4040496E-2,-7.2456414E-1,1.4269783E-1,2.3674513E-1,-9.275956E-1,-9.2014617E-1,-2.2724481E-1,-3.2345045E-1,1.5559982E-1,5.844078E-2,-3.2143056E-1,-2.0861816E-1,2.6827547E-1,-1.694924E-2,-3.0222037E-1,-6.849503E-2,-2.9168323E-1,1.3721034E-1,-1.9505513E-1],"categories":[],"categories_nodes":[],"categories_segments":[],"categories_sizes":[],"default_left":[0,0,0,0,0,0,0,0,0,0,0,0,0,0,0,0,0,0,0,0,0,0,0,0,0,0,0,0,0],"id":8,"left_children":[1,-1,3,5,-1,7,9,11,13,15,-1,17,19,21,23,25,27,-1,-1,-1,-1,-1,-1,-1,-1,-1,-1,-1,-1],"loss_changes":[5.2374695E1,0E0,1.8962008E1,9.298942E0,0E0,6.095636E0,1.0296755E0,5.479688E0,4.1926017E0,7.944279E-1,0E0,4.0892725E0,5.218914E0,3.5410879E0,7.3737526E-1,3.8358498E-1,1.3712692E0,0E0,0E0,0E0,0E0,0E0,0E0,0E0,0E0,0E0,0E0,0E0,0E0],"parents":[2147483647,0,0,2,2,3,3,5,5,6,6,7,7,8,8,9,9,11,11,12,12,13,13,14,14,15,15,16,16],"right_children":[2,-1,4,6,-1,8,10,12,14,16,-1,18,20,22,24,26,28,-1,-1,-1,-1,-1,-1,-1,-1,-1,-1,-1,-1],"split_conditions":[3E0,3.0767083E-1,4E0,1E0,-2.9800484E-1,1E0,1E0,9.0621E4,9.1789E4,1.061E2,-1.4040496E-2,6.6E1,-1.1655783E2,1E0,4.02E1,3.3477924E1,4.606E3,-3.2345045E-1,1.5559982E-1,5.844078E-2,-3.2143056E-1,-2.0861816E-1,2.6827547E-1,-1.694924E-2,-3.0222037E-1,-6.849503E-2,-2.9168323E-1,1.3721034E-1,-1.9505513E-1],"split_indices":[35,0,35,20,0,6,46,9,9,29,0,2,11,17,33,10,36,0,0,0,0,0,0,0,0,0,0,0,0],"split_type":[0,0,0,0,0,0,0,0,0,0,0,0,0,0,0,0,0,0,0,0,0,0,0,0,0,0,0,0,0],"sum_hessian":[1.8734688E2,3.1888992E1,1.5545789E2,1.1985841E2,3.5599476E1,9.941607E1,2.0442348E1,8.5227394E1,1.4188677E1,1.8499596E1,1.9427527E0,7.029967E0,7.8197426E1,3.7630796E0,1.0425597E1,1.5790742E1,2.708854E0,5.5766144E0,1.4533522E0,7.578467E1,2.412759E0,1.5326447E0,2.2304351E0,1.0183207E0,9.407276E0,1.4834633E0,1.4307279E1,1.0033402E0,1.7055137E0],"tree_param":{"num_deleted":"0","num_feature":"91","num_nodes":"29","size_leaf_vector":"1"}},{"base_weights":[-1.1113725E-1,3.002907E-1,-3.0697164E-1,-1.429996E-1,-2.9373604E-1,-4.175742E-2,-8.411686E-1,6.7903444E-2,-5.746994E-1,-8.970603E-1,-1.7421432E-2,-8.8469505E-2,3.9785594E-1,-8.255661E-1,9.052904E-2,-2.8917137E-1,-3.400036E-2,6.1104294E-2,-1.2100686E-1,2.1452878E-1,-1.2504596E-1,-2.8219134E-1,-3.9356932E-2,-2.1320878E-1,1.9512779E-1],"categories":[],"categories_nodes":[],"categories_segments":[],"categories_sizes":[],"default_left":[0,0,0,0,0,0,0,0,0,0,0,0,0,0,0,0,0,0,0,0,0,0,0,0,0],"id":9,"left_children":[1,-1,3,5,-1,7,9,11,13,15,-1,17,19,21,23,-1,-1,-1,-1,-1,-1,-1,-1,-1,-1],"loss_changes":[3.652813E1,0E0,1.552969E1,8.126398E0,0E0,5.9939904E0,5.8565426E-1,4.4414573E0,2.9941916E0,5.996113E-1,0E0,5.487601E0,7.441911E0,8.995304E-1,3.0156088E0,0E0,0E0,0E0,0E0,0E0,0E0,0E0,0E0,0E0,0E0],"parents":[2147483647,0,0,2,2,3,3,5,5,6,6,7,7,8,8,9,9,11,11,12,12,13,13,14,14],"right_children":[2,-1,4,6,-1,8,10,12,14,16,-1,18,20,22,24,-1,-1,-1,-1,-1,-1,-1,-1,-1,-1],"split_conditions":[3E0,3.002907E-1,4E0,4E0,-2.9373604E-1,1E0,8.839779E-2,8.5E2,9.5367E4,6.03E3,-1.7421432E-2,4.7945204E-1,9.62E2,5.917E3,6.71E2,-2.8917137E-1,-3.400036E-2,6.1104294E-2,-1.2100686E-1,2.1452878E-1,-1.2504596E-1,-2.8219134E-1,-3.9356932E-2,-2.1320878E-1,1.9512779E-1],"split_indices":[35,0,35,13,0,53,68,8,9,36,0,66,8,36,8,0,0,0,0,0,0,0,0,0,0],"split_type":[0,0,0,0,0,0,0,0,0,0,0,0,0,0,0,0,0,0,0,0,0,0,0,0,0],"sum_hessian":[1.6531197E2,2.413614E1,1.4117583E2,1.14464676E2,2.6711153E1,1.00893776E2,1.3570898E1,8.4399826E1,1.6493952E1,1.2530999E1,1.0398988E0,5.7758476E1,2.6641352E1,1.1802168E1,4.691785E0,1.1334386E1,1.1966134E0,3.0144087E1,2.761439E1,1.9262602E1,7.3787484E0,9.82013E0,1.9820367E0,1.8191735E0,2.8726115E0],"tree_param":{"num_deleted":"0","num_feature":"91","num_nodes":"25","size_leaf_vector":"1"}},{"base_weights":[-9.8630525E-2,2.9336268E-1,-2.5740147E-1,-1.19619556E-1,-2.8912306E-1,-3.8635667E-2,-7.85013E-1,9.4582945E-2,-3.9739355E-1,-8.498768E-1,-1.4891259E-2,-2.9730913E-1,3.1008247E-1,-1.8964246E-2,-8.970405E-1,-2.7901906E-1,-2.9015938E-2,-1.7043386E-1,1.227364E-1,1.2200543E-1,-1.6207764E-1,-1.5096232E-1,1.3566567E-1,1.7615801E-1,-3.4535763E-1],"categories":[],"categories_nodes":[],"categories_segments":[],"categories_sizes":[],"default_left":[0,0,0,0,0,0,0,0,0,0,0,0,0,0,0,0,0,0,0,0,0,0,0,0,0],"id":10,"left_children":[1,-1,3,5,-1,7,9,11,13,15,-1,17,19,21,23,-1,-1,-1,-1,-1,-1,-1,-1,-1,-1],"loss_changes":[2.55848E1,0E0,1.2532476E1,5.891122E0,0E0,4.769919E0,5.2407074E-1,6.258285E0,5.088982E0,5.6513596E-1,0E0,5.285722E0,4.1296096E0,3.9666948E0,5.0579815E0,0E0,0E0,0E0,0E0,0E0,0E0,0E0,0E0,0E0,0E0],"parents":[2147483647,0,0,2,2,3,3,5,5,6,6,7,7,8,8,9,9,11,11,12,12,13,13,14,14],"right_children":[2,-1,4,6,-1,8,10,12,14,16,-1,18,20,22,24,-1,-1,-1,-1,-1,-1,-1,-1,-1,-1],"split_conditions":[3E0,2.9336268E-1,4E0,4E0,-2.8912306E-1,1E0,8.839779E-2,1E0,2.695E1,6.03E3,-1.4891259E-2,1E0,1E0,2.2E1,6.76E1,-2.7901906E-1,-2.9015938E-2,-1.7043386E-1,1.227364E-1,1.2200543E-1,-1.6207764E-1,-1.5096232E-1,1.3566567E-1,1.7615801E-1,-3.4535763E-1],"split_indices":[35,0,35,13,0,23,68,54,16,36,0,5,6,67,29,0,0,0,0,0,0,0,0,0,0],"split_type":[0,0,0,0,0,0,0,0,0,0,0,0,0,0,0,0,0,0,0,0,0,0,0,0,0],"sum_hessian":[1.4721791E2,1.8258919E1,1.28959E2,1.08888176E2,2.0070816E1,9.8016785E1,1.0871389E1,7.201253E1,2.6004261E1,9.847119E0,1.0242705E0,2.5414995E1,4.659753E1,1.5387686E1,1.0616576E1,8.687318E0,1.1598018E0,1.8513725E1,6.901271E0,4.2312405E1,4.2851253E0,7.555152E0,7.832534E0,1.3605597E0,9.256016E0],"tree_param":{"num_deleted":"0","num_feature":"91","num_nodes":"25","size_leaf_vector":"1"}},{"base_weights":[-8.7034576E-2,2.863288E-1,-2.1381976E-1,-1.0044014E-1,-2.8386748E-1,-4.020718E-1,5.6640998E-2,5.900514E-1,-5.003305E-1,-1.2015387E-1,3.7296355E-1,-7.2104596E-2,3.5325456E-1,-5.6258565E-1,2.5890964E-1,3.109646E-2,-6.124902E-1,7.835894E-1,-1.6901782E-1,9.853138E-2,-1.8535379E-1,-1.1022151E-1,2.2296092E-1,-3.1110388E-1,3.2512613E-2,1.2908562E-1,-2.6169756E-1,8.227408E-2,3.8116625E-1,7.466732E-2,-2.6841882E-1],"categories":[],"categories_nodes":[],"categories_segments":[],"categories_sizes":[],"default_left":[0,0,0,0,0,0,0,0,0,0,0,0,0,0,0,0,0,0,0,0,0,0,0,0,0,0,0,0,0,0,0],"id":11,"left_children":[1,-1,3,5,-1,7,9,11,13,15,17,-1,-1,19,21,23,25,27,29,-1,-1,-1,-1,-1,-1,-1,-1,-1,-1,-1,-1],"loss_changes":[1.8025026E1,0E0,9.9639E0,5.045803E0,0E0,3.846291E0,3.9923594E0,2.1081984E0,1.7378578E0,3.447196E0,5.81886E0,0E0,0E0,1.7513618E0,1.2550884E0,3.0978615E0,3.3198695E0,3.3012314E0,3.812467E0,0E0,0E0,0E0,0E0,0E0,0E0,0E0,0E0,0E0,0E0,0E0,0E0],"parents":[2147483647,0,0,2,2,3,3,5,5,6,6,7,7,8,8,9,9,10,10,13,13,14,14,15,15,16,16,17,17,18,18],"right_children":[2,-1,4,6,-1,8,10,12,14,16,18,-1,-1,20,22,24,26,28,30,-1,-1,-1,-1,-1,-1,-1,-1,-1,-1,-1,-1],"split_conditions":[3E0,2.863288E-1,4E0,1E0,-2.8386748E-1,1.6115E2,8.14E2,1E0,6.9E1,6.02E2,8.73E2,-7.2104596E-2,3.5325456E-1,5E1,1.9E1,3.3119026E1,2.1875E-1,2.6E1,8.2758623E-1,9.853138E-2,-1.8535379E-1,-1.1022151E-1,2.2296092E-1,-3.1110388E-1,3.2512613E-2,1.2908562E-1,-2.6169756E-1,8.227408E-2,3.8116625E-1,7.466732E-2,-2.6841882E-1],"split_indices":[35,0,35,28,0,30,8,54,2,8,8,0,0,8,19,10,66,67,66,0,0,0,0,0,0,0,0,0,0,0,0],"split_type":[0,0,0,0,0,0,0,0,0,0,0,0,0,0,0,0,0,0,0,0,0,0,0,0,0,0,0,0,0,0,0],"sum_hessian":[1.3396404E2,1.3830109E1,1.2013393E2,1.05014366E2,1.5119562E1,3.542693E1,6.958744E1,2.7414355E0,3.2685493E1,4.5036423E1,2.4551014E1,1.3806751E0,1.3607605E0,3.0447884E1,2.2376099E0,3.5169014E1,9.867411E0,1.3714555E1,1.083646E1,1.4893847E0,2.8958498E1,1.0809827E0,1.1566272E0,1.5349283E0,3.3634083E1,1.8374244E0,8.029986E0,7.467291E0,6.2472644E0,7.293473E0,3.5429869E0],"tree_param":{"num_deleted":"0","num_feature":"91","num_nodes":"31","size_leaf_vector":"1"}},{"base_weights":[-7.005477E-2,2.7874914E-1,-1.7116696E-1,-7.7141345E-2,-2.776986E-1,1.9665977E-2,-5.37956E-1,-5.6173783E-2,6.015106E-1,-6.6745657E-1,1.5391766E-1,1.2777144E-1,-3.5388145E-1,8.5132873E-1,-2.0822926E-1,-1.00938395E-1,-9.0889865E-1,2.546088E-1,-2.0001808E-3,-4.4906784E-2,-2.8283796E-1,2.2520257E-2,3.986555E-1,-1.5344398E-1,1.129082E-1,-2.2701466E-2,-2.955878E-1],"categories":[],"categories_nodes":[],"categories_segments":[],"categories_sizes":[],"default_left":[0,0,0,0,0,0,0,0,0,0,0,0,0,0,0,0,0,0,0,0,0,0,0,0,0,0,0],"id":12,"left_children":[1,-1,3,5,-1,7,9,11,13,15,-1,17,19,21,-1,23,25,-1,-1,-1,-1,-1,-1,-1,-1,-1,-1],"loss_changes":[1.2638659E1,0E0,7.946007E0,4.5421567E0,0E0,3.7806528E0,2.7475352E0,4.208994E0,3.7876856E0,2.119567E0,0E0,4.63177E0,3.3826E0,3.1360555E0,0E0,1.3595909E0,6.390438E-1,0E0,0E0,0E0,0E0,0E0,0E0,0E0,0E0,0E0,0E0],"parents":[2147483647,0,0,2,2,3,3,5,5,6,6,7,7,8,8,9,9,11,11,12,12,13,13,15,15,16,16],"right_children":[2,-1,4,6,-1,8,10,12,14,16,-1,18,20,22,-1,24,26,-1,-1,-1,-1,-1,-1,-1,-1,-1,-1],"split_conditions":[3E0,2.7874914E-1,4E0,1E0,-2.776986E-1,1.0085E2,6.261E3,9.4028E4,1.6904762E0,7.1E1,1.5391766E-1,-1.1974932E2,3.9E1,2.1E1,-2.0822926E-1,9.5351E4,1.3993479E-2,2.546088E-1,-2.0001808E-3,-4.4906784E-2,-2.8283796E-1,2.2520257E-2,3.986555E-1,-1.5344398E-1,1.129082E-1,-2.2701466E-2,-2.955878E-1],"split_indices":[35,0,35,53,0,29,36,9,66,82,0,11,14,19,0,9,68,0,0,0,0,0,0,0,0,0,0],"split_type":[0,0,0,0,0,0,0,0,0,0,0,0,0,0,0,0,0,0,0,0,0,0,0,0,0,0,0],"sum_hessian":[1.2251999E2,1.05061245E1,1.1201386E2,1.0058157E2,1.1432292E1,8.391099E1,1.6670584E1,7.503421E1,8.876778E0,1.5166756E1,1.5038277E0,4.6731155E1,2.8303055E1,7.729327E0,1.1474509E0,4.956027E0,1.0210729E1,6.5097704E0,4.0221382E1,2.1947443E1,6.3556128E0,3.3845704E0,4.3447566E0,2.6258388E0,2.3301883E0,1.0247171E0,9.186011E0],"tree_param":{"num_deleted":"0","num_feature":"91","num_nodes":"27","size_leaf_vector":"1"}},{"base_weights":[-5.8447227E-2,2.7028495E-1,-1.3876687E-1,-6.2202923E-2,-2.7038524E-1,1.436729E-2,-5.7362866E-1,-6.675691E-1,5.7372693E-2,-6.9309413E-1,8.435457E-2,-2.80146E-1,5.2659214E-2,3.6659592E-4,6.993019E-1,-8.310323E-1,1.7541401E-2,3.8777877E-2,-1.2554786E-1,3.8985327E-1,1.20835425E-2,-1.4587572E-2,-2.7449661E-1],"categories":[],"categories_nodes":[],"categories_segments":[],"categories_sizes":[],"default_left":[0,0,0,0,0,0,0,0,0,0,0,0,0,0,0,0,0,0,0,0,0,0,0],"id":13,"left_children":[1,-1,3,5,-1,7,9,11,13,15,-1,-1,-1,17,19,21,-1,-1,-1,-1,-1,-1,-1],"loss_changes":[8.986952E0,0E0,6.189872E0,3.8575559E0,0E0,2.5742667E0,1.50457E0,1.3331864E0,3.010078E0,1.2450361E0,0E0,0E0,0E0,4.187114E0,2.6014078E0,6.0036707E-1,0E0,0E0,0E0,0E0,0E0,0E0,0E0],"parents":[2147483647,0,0,2,2,3,3,5,5,6,6,7,7,8,8,9,9,13,13,14,14,15,15],"right_children":[2,-1,4,6,-1,8,10,12,14,16,-1,-1,-1,18,20,22,-1,-1,-1,-1,-1,-1,-1],"split_conditions":[3E0,2.7028495E-1,4E0,1E0,-2.7038524E-1,-1.2263178E2,4.467E1,9.84E2,1.031E2,1.061E2,8.435457E-2,-2.80146E-1,5.2659214E-2,4.3E1,6.5569E2,4.945E1,1.7541401E-2,3.8777877E-2,-1.2554786E-1,3.8985327E-1,1.20835425E-2,-1.4587572E-2,-2.7449661E-1],"split_indices":[35,0,35,20,0,11,16,69,29,29,0,0,0,14,33,29,0,0,0,0,0,0,0],"split_type":[0,0,0,0,0,0,0,0,0,0,0,0,0,0,0,0,0,0,0,0,0,0,0],"sum_hessian":[1.1400272E2,8.017596E0,1.0598513E2,9.729715E1,8.687981E0,8.547223E1,1.1824919E1,4.208895E0,8.1263336E1,1.0540937E1,1.2839817E0,3.116957E0,1.0919381E0,7.555435E1,5.708983E0,8.816982E0,1.7239549E0,5.8304176E1,1.7250177E1,2.4791818E0,3.229801E0,1.0074575E0,7.809525E0],"tree_param":{"num_deleted":"0","num_feature":"91","num_nodes":"23","size_leaf_vector":"1"}},{"base_weights":[-4.8388693E-2,2.6070675E-1,-1.1211614E-1,-5.014774E-2,-2.6176023E-1,7.3796017E-3,-6.7749745E-1,1.1129026E-1,-2.8881493E-1,-2.572006E-1,-1.2069463E-1,2.8702704E-2,7.810263E-1,3.7053775E-2,-7.3996E-1,1.1582292E-1,-1.6305934E-1,-6.9043795E-3,3.480225E-1,3.6113518E-1,5.2170653E-2,-1.0024312E-1,1.0912007E-1,1.8024424E-1,-3.059544E-1],"categories":[],"categories_nodes":[],"categories_segments":[],"categories_sizes":[],"default_left":[0,0,0,0,0,0,0,0,0,0,0,0,0,0,0,0,0,0,0,0,0,0,0,0,0],"id":14,"left_children":[1,-1,3,5,-1,7,9,11,13,-1,15,17,19,21,23,-1,-1,-1,-1,-1,-1,-1,-1,-1,-1],"loss_changes":[6.436643E0,0E0,4.7754855E0,3.4561338E0,0E0,2.75854E0,7.01911E-1,3.6447234E0,3.450492E0,0E0,8.7999177E-1,3.5408645E0,1.6489153E0,1.8763711E0,4.295104E0,0E0,0E0,0E0,0E0,0E0,0E0,0E0,0E0,0E0,0E0],"parents":[2147483647,0,0,2,2,3,3,5,5,6,6,7,7,8,8,10,10,11,11,12,12,13,13,14,14],"right_children":[2,-1,4,6,-1,8,10,12,14,-1,16,18,20,22,24,-1,-1,-1,-1,-1,-1,-1,-1,-1,-1],"split_conditions":[3E0,2.6070675E-1,4E0,4E0,-2.6176023E-1,1E0,9.41E1,9.99E1,2.695E1,-2.572006E-1,5.72095E3,4.866E1,4.778E3,2.2E1,2.71E2,1.1582292E-1,-1.6305934E-1,-6.9043795E-3,3.480225E-1,3.6113518E-1,5.2170653E-2,-1.0024312E-1,1.0912007E-1,1.8024424E-1,-3.059544E-1],"split_indices":[35,0,35,13,0,23,29,29,16,0,30,16,36,67,8,0,0,0,0,0,0,0,0,0,0],"split_type":[0,0,0,0,0,0,0,0,0,0,0,0,0,0,0,0,0,0,0,0,0,0,0,0,0],"sum_hessian":[1.0742881E2,6.156998E0,1.0127181E2,9.462641E1,6.6454005E0,8.758334E1,7.0430684E0,6.529936E1,2.2283987E1,4.9156494E0,2.1274188E0,5.905939E1,6.239969E0,1.3471321E1,8.812665E0,1.0072104E0,1.1202083E0,5.7414516E1,1.6448753E0,3.0991678E0,3.140801E0,6.2952967E0,7.176025E0,1.3239237E0,7.4887414E0],"tree_param":{"num_deleted":"0","num_feature":"91","num_nodes":"25","size_leaf_vector":"1"}},{"base_weights":[-3.5866134E-2,2.4991329E-1,-8.63119E-2,-3.606925E-2,-2.5175256E-1,3.096788E-2,-5.14167E-1,-6.291697E-1,9.167682E-2,2.7684268E-1,-8.247914E-1,1.0174309E-1,-1.0453694E0,1.3039932E-1,-2.6621413E-1,-1.6475603E-1,2.2272976E-1,-1.0797813E-2,-2.777078E-1,-3.673774E-1,-4.3494754E-2,-1.914206E-2,1.0441641E-1],"categories":[],"categories_nodes":[],"categories_segments":[],"categories_sizes":[],"default_left":[0,0,0,0,0,0,0,0,0,0,0,0,0,0,0,0,0,0,0,0,0,0,0],"id":15,"left_children":[1,-1,3,5,-1,7,9,11,13,15,17,-1,19,21,-1,-1,-1,-1,-1,-1,-1,-1,-1],"loss_changes":[4.6030064E0,0E0,3.6995993E0,3.0120618E0,0E0,3.3811936E0,3.066907E0,3.2205215E0,3.0280142E0,1.9484694E0,6.4690447E-1,0E0,6.645794E-1,3.1826334E0,0E0,0E0,0E0,0E0,0E0,0E0,0E0,0E0,0E0],"parents":[2147483647,0,0,2,2,3,3,5,5,6,6,7,7,8,8,9,9,10,10,12,12,13,13],"right_children":[2,-1,4,6,-1,8,10,12,14,16,18,-1,20,22,-1,-1,-1,-1,-1,-1,-1,-1,-1],"split_conditions":[3E0,2.4991329E-1,4E0,1E0,-2.5175256E-1,9.0621E4,9.1789E4,7.445E1,-1.1655783E2,1E0,1.2E2,1.0174309E-1,7E0,1E0,-2.6621413E-1,-1.6475603E-1,2.2272976E-1,-1.0797813E-2,-2.777078E-1,-3.673774E-1,-4.3494754E-2,-1.914206E-2,1.0441641E-1],"split_indices":[35,0,35,6,0,9,9,29,11,17,8,0,70,17,0,0,0,0,0,0,0,0,0],"split_type":[0,0,0,0,0,0,0,0,0,0,0,0,0,0,0,0,0,0,0,0,0,0,0],"sum_hessian":[1.0237235E2,4.766001E0,9.7606346E1,9.248241E1,5.1239433E0,8.192974E1,1.0552665E1,6.111435E0,7.5818306E1,3.0061674E0,7.5464973E0,1.8928196E0,4.2186155E0,7.3767555E1,2.0507548E0,1.01891E0,1.9872572E0,1.0097171E0,6.53678E0,3.2180007E0,1.000615E0,3.935728E1,3.441027E1],"tree_param":{"num_deleted":"0","num_feature":"91","num_nodes":"23","size_leaf_vector":"1"}},{"base_weights":[-3.665745E-2,4.25159E-2,-4.6637937E-1,2.3661853E-1,-4.1811063E-4,-6.0762066E-1,1.4311345E-1,4.5186494E-2,-6.8056697E-1,-1.0066004E-1,-8.470541E-1,-5.47309E-2,3.4157038E-1,-2.3444113E-1,-3.9567087E-2,-4.6842292E-1,3.2400548E-1,-2.80148E-1,-1.8651739E-2,-2.6513794E-1,2.6250038E-1,-3.0367926E-1,6.8383485E-1,-1.9700813E-1,-2.0165516E-3,1.9688685E-1,-4.3932874E-2,3.824074E-2,-1.6881359E-1,1.7762692E-1,-1.3206606E-1,-2.7335063E-1,1.8170115E-1,2.6103944E-1,-1.3934357E-1],"categories":[],"categories_nodes":[],"categories_segments":[],"categories_sizes":[],"default_left":[0,0,0,0,0,0,0,0,0,0,0,0,0,0,0,0,0,0,0,0,0,0,0,0,0,0,0,0,0,0,0,0,0,0,0],"id":16,"left_children":[1,3,5,-1,7,9,-1,11,13,15,17,19,21,-1,-1,23,25,-1,-1,27,29,31,33,-1,-1,-1,-1,-1,-1,-1,-1,-1,-1,-1,-1],"loss_changes":[3.4101908E0,2.7255843E0,2.366845E0,0E0,2.5566964E0,1.6137605E0,0E0,2.3065336E0,1.8368268E-1,1.0302587E0,5.80246E-1,3.9836442E0,4.539815E0,0E0,0E0,2.9315758E-1,5.965989E-1,0E0,0E0,4.2487626E0,5.7929173E0,4.690204E0,3.2119184E0,0E0,0E0,0E0,0E0,0E0,0E0,0E0,0E0,0E0,0E0,0E0,0E0],"parents":[2147483647,0,0,1,1,2,2,4,4,5,5,7,7,8,8,9,9,10,10,11,11,12,12,15,15,16,16,19,19,20,20,21,21,22,22],"right_children":[2,4,6,-1,8,10,-1,12,14,16,18,20,22,-1,-1,24,26,-1,-1,28,30,32,34,-1,-1,-1,-1,-1,-1,-1,-1,-1,-1,-1,-1],"split_conditions":[1E0,3E0,6.261E3,2.3661853E-1,4E0,7.1E1,1.4311345E-1,1E0,8.54E2,1.04E3,1.0175E2,-1.1838712E2,1E0,-2.3444113E-1,-3.9567087E-2,6.55351E3,4.304E3,-2.80148E-1,-1.8651739E-2,1.685E1,9.213E4,3.2E1,3E1,-1.9700813E-1,-2.0165516E-3,1.9688685E-1,-4.3932874E-2,3.824074E-2,-1.6881359E-1,1.7762692E-1,-1.3206606E-1,-2.7335063E-1,1.8170115E-1,2.6103944E-1,-1.3934357E-1],"split_indices":[53,35,36,0,13,82,0,12,8,69,29,11,51,0,0,34,36,0,0,16,9,67,19,0,0,0,0,0,0,0,0,0,0,0,0],"split_type":[0,0,0,0,0,0,0,0,0,0,0,0,0,0,0,0,0,0,0,0,0,0,0,0,0,0,0,0,0,0,0,0,0,0,0],"sum_hessian":[9.865052E1,8.406346E1,1.458706E1,3.6284606E0,8.0435005E1,1.2997177E1,1.5898833E0,7.625556E1,4.1794415E0,4.6249733E0,8.372204E0,5.7639412E1,1.861615E1,3.1718462E0,1.0075951E0,2.423322E0,2.201651E0,7.3678813E0,1.0043223E0,3.4753197E1,2.2886215E1,6.491281E0,1.2124868E1,1.4213809E0,1.0019411E0,1.0587864E0,1.1428647E0,1.5230428E1,1.9522768E1,1.5686419E1,7.1997967E0,3.8903437E0,2.6009374E0,1.064081E1,1.4840581E0],"tree_param":{"num_deleted":"0","num_feature":"91","num_nodes":"35","size_leaf_vector":"1"}},{"base_weights":[-3.529397E-2,3.1820142E-3,-2.3563686E-1,2.2562338E-1,-3.0639878E-2,2.561064E-2,-4.6204183E-1,5.2641626E-2,-2.3437671E-1,2.2666423E-1,-6.594837E-1,-5.418018E-2,3.1075683E-1,1.3145845E-1,-2.8523697E-2,6.959503E-2,-2.6113278E-1,5.0306432E-2,-1.039109E-1,1.6996187E-1,-1.8233298E-1],"categories":[],"categories_nodes":[],"categories_segments":[],"categories_sizes":[],"default_left":[0,0,0,0,0,0,0,0,0,0,0,0,0,0,0,0,0,0,0,0,0],"id":17,"left_children":[1,3,-1,-1,5,7,9,11,-1,13,15,17,19,-1,-1,-1,-1,-1,-1,-1,-1],"loss_changes":[2.7360775E0,2.3301008E0,0E0,0E0,2.149923E0,1.7618055E0,1.5386186E0,2.1474106E0,0E0,2.4722601E-1,1.7431791E0,3.6563456E0,5.6933293E0,0E0,0E0,0E0,0E0,0E0,0E0,0E0,0E0],"parents":[2147483647,0,0,1,1,4,4,5,5,6,6,7,7,9,9,10,10,11,11,12,12],"right_children":[2,4,-1,-1,6,8,10,12,-1,14,16,18,20,-1,-1,-1,-1,-1,-1,-1,-1],"split_conditions":[4E0,3E0,-2.3563686E-1,2.2562338E-1,1E0,-1.1655783E2,3.3674583E1,-1.1811253E2,-2.3437671E-1,6.22E2,-1.22286224E2,4.8382E2,9.2561E4,1.3145845E-1,-2.8523697E-2,6.959503E-2,-2.6113278E-1,5.0306432E-2,-1.039109E-1,1.6996187E-1,-1.8233298E-1],"split_indices":[35,35,0,0,20,11,10,11,0,8,11,33,9,0,0,0,0,0,0,0,0],"split_type":[0,0,0,0,0,0,0,0,0,0,0,0,0,0,0,0,0,0,0,0,0],"sum_hessian":[9.370798E1,9.008334E1,3.6246364E0,2.974933E0,8.7108406E1,7.7892624E1,9.215789E0,7.627217E1,1.6204509E0,2.020385E0,7.1954036E0,5.450514E1,2.1767033E1,1.0005997E0,1.0197853E0,1.3578324E0,5.837571E0,3.1222813E1,2.3282326E1,1.7325607E1,4.4414244E0],"tree_param":{"num_deleted":"0","num_feature":"91","num_nodes":"21","size_leaf_vector":"1"}},{"base_weights":[-3.36757E-2,2.5568673E-2,-5.0679433E-1,-2.7287093E-1,5.7584804E-2,1.3100818E-1,-6.769375E-1,-5.010436E-1,1.11114874E-1,-2.45545E-1,-2.2619616E-2,1.1498825E-1,-8.3880967E-1,-1.6233957E-1,2.4611375E-1,-2.8982875E-1,-5.3171005E-2,-2.888605E-1,2.7760246E-1,3.9316285E-1,-3.0697837E-1,-2.2754537E-1,-1.8298302E-2,-1.20973274E-1,1.4917488E-1,-1.8702185E-1,2.1651353E-1],"categories":[],"categories_nodes":[],"categories_segments":[],"categories_sizes":[],"default_left":[0,0,0,0,0,0,0,0,0,0,0,0,0,0,0,0,0,0,0,0,0,0,0,0,0,0,0],"id":18,"left_children":[1,3,5,-1,7,-1,9,11,13,-1,-1,-1,15,17,19,-1,-1,21,-1,23,25,-1,-1,-1,-1,-1,-1],"loss_changes":[2.5800705E0,2.517762E0,1.9394557E0,0E0,2.4646945E0,0E0,7.103696E-1,2.4799328E0,2.7840705E0,0E0,0E0,0E0,2.9550624E-1,3.7311666E0,4.2005453E0,0E0,0E0,2.448186E0,0E0,3.5217953E0,4.062126E0,0E0,0E0,0E0,0E0,0E0,0E0],"parents":[2147483647,0,0,1,1,2,2,4,4,6,6,7,7,8,8,12,12,13,13,14,14,17,17,19,19,20,20],"right_children":[2,4,6,-1,8,-1,10,12,14,-1,-1,-1,16,18,20,-1,-1,22,-1,24,26,-1,-1,-1,-1,-1,-1],"split_conditions":[1E0,3.274186E1,9.0232E4,-2.7287093E-1,9.0621E4,1.3100818E-1,5.7E1,2.651E3,1E0,-2.45545E-1,-2.2619616E-2,1.1498825E-1,1E0,4.493E1,1E0,-2.8982875E-1,-5.3171005E-2,3.81E2,2.7760246E-1,-1.2239501E2,-1.173725E2,-2.2754537E-1,-1.8298302E-2,-1.20973274E-1,1.4917488E-1,-1.8702185E-1,2.1651353E-1],"split_indices":[6,10,9,0,9,0,2,36,54,0,0,0,5,16,84,0,0,8,0,11,11,0,0,0,0,0,0],"split_type":[0,0,0,0,0,0,0,0,0,0,0,0,0,0,0,0,0,0,0,0,0,0,0,0,0,0,0],"sum_hessian":[9.058572E1,8.134551E1,9.240207E0,1.785459E0,7.956005E1,1.172388E0,8.067819E0,6.2260704E0,7.3333984E1,6.239077E0,1.8287418E0,1.6835123E0,4.542558E0,2.4170849E1,4.916313E1,3.4235659E0,1.1189924E0,2.2310123E1,1.8607267E0,3.9065933E1,1.00971985E1,6.5278397E0,1.5782284E1,4.183358E0,3.4882576E1,8.023216E0,2.073982E0],"tree_param":{"num_deleted":"0","num_feature":"91","num_nodes":"27","size_leaf_vector":"1"}},{"base_weights":[-3.5926733E-2,1.3729075E-2,-4.9866393E-1,-5.7216346E-2,8.273843E-1,-2.5406292E-1,5.9890267E-3,-6.713389E-3,-6.8049526E-1,-4.4330508E-2,1.189222E0,-2.180312E-1,4.8653153E-1,-3.9571688E-2,2.723046E-1,-3.4546334E-2,-2.332894E-1,9.838377E-2,3.9811096E-1,1.8897828E-1,4.5540333E-2,-5.451549E-1,2.9440587E-2,-2.6421276E-1,1.2908108E-2,3.1783205E-2,-1.8236765E-1],"categories":[],"categories_nodes":[],"categories_segments":[],"categories_sizes":[],"default_left":[0,0,0,0,0,0,0,0,0,0,0,0,0,0,0,0,0,0,0,0,0,0,0,0,0,0,0],"id":19,"left_children":[1,3,5,7,9,-1,11,13,15,-1,17,-1,19,21,-1,-1,-1,-1,-1,-1,-1,23,25,-1,-1,-1,-1],"loss_changes":[2.0462217E0,4.730404E0,1.5212402E0,2.373736E0,2.4943228E0,0E0,1.9436625E0,2.1662204E0,2.2090268E-1,0E0,1.4680195E-1,0E0,6.402993E-2,2.437563E0,0E0,0E0,0E0,0E0,0E0,0E0,0E0,1.69316E0,3.088119E0,0E0,0E0,0E0,0E0],"parents":[2147483647,0,0,1,1,2,2,3,3,4,4,6,6,7,7,8,8,10,10,12,12,13,13,21,21,22,22],"right_children":[2,4,6,8,10,-1,12,14,16,-1,18,-1,20,22,-1,-1,-1,-1,-1,-1,-1,24,26,-1,-1,-1,-1],"split_conditions":[-1.1713492E2,-1.17299644E2,1E0,4E0,5.425E1,-2.5406292E-1,1.16E1,2.64E0,3.409091E-1,-4.4330508E-2,4.2105263E-1,-2.180312E-1,3.2984394E1,2.7E1,2.723046E-1,-3.4546334E-2,-2.332894E-1,9.838377E-2,3.9811096E-1,1.8897828E-1,4.5540333E-2,9.2E1,5.741E3,-2.6421276E-1,1.2908108E-2,3.1783205E-2,-1.8236765E-1],"split_indices":[11,11,57,13,29,0,16,66,66,0,66,0,10,2,0,0,0,0,0,0,0,67,36,0,0,0,0],"split_type":[0,0,0,0,0,0,0,0,0,0,0,0,0,0,0,0,0,0,0,0,0,0,0,0,0,0,0],"sum_hessian":[8.7754974E1,8.0126976E1,7.628004E0,7.455587E1,5.5711045E0,4.112339E0,3.5156653E0,6.990258E1,4.6532855E0,1.6678541E0,3.9032507E0,1.18948E0,2.3261855E0,6.8401344E1,1.5012414E0,1.0027409E0,3.650545E0,1.0045987E0,2.8986518E0,1.0111299E0,1.3150556E0,7.386743E0,6.10146E1,4.3867745E0,2.9999688E0,5.521994E1,5.794659E0],"tree_param":{"num_deleted":"0","num_feature":"91","num_nodes":"27","size_leaf_vector":"1"}},{"base_weights":[-3.1188436E-2,9.991707E-3,-5.599513E-1,3.9772876E-2,-2.1012518E-1,6.455092E-2,-2.6302302E-1,1.2633961E-1,-2.0113336E-1,-6.5561175E-2,9.540067E-2,5.7837926E-2,6.435105E-1,3.6534753E-2,-7.174393E-1,1.4101814E-1,-5.1407325E-1,8.8558096E-1,-3.0546144E-2,-6.648742E-1,2.6304966E-1,9.065765E-2,-2.937565E-1,-1.4214483E-1,7.3183134E-2,-2.717837E-1,8.5049525E-2,3.291598E-1,4.1605797E-2,-6.126676E-2,-2.56697E-1,-1.9094962E-1,1.2619007E-1],"categories":[],"categories_nodes":[],"categories_segments":[],"categories_sizes":[],"default_left":[0,0,0,0,0,0,0,0,0,0,0,0,0,0,0,0,0,0,0,0,0,0,0,0,0,0,0,0,0,0,0,0,0],"id":20,"left_children":[1,3,5,7,-1,9,-1,11,13,-1,-1,15,17,19,21,23,25,27,-1,29,31,-1,-1,-1,-1,-1,-1,-1,-1,-1,-1,-1,-1],"loss_changes":[1.891089E0,1.7482799E0,1.2978356E0,1.6727506E0,0E0,2.8782424E-1,0E0,2.0432348E0,2.635898E0,0E0,0E0,2.591658E0,1.3116055E0,2.6398935E0,2.098012E0,3.090852E0,2.4256673E0,6.7182875E-1,0E0,1.8301582E-1,2.0317345E0,0E0,0E0,0E0,0E0,0E0,0E0,0E0,0E0,0E0,0E0,0E0,0E0],"parents":[2147483647,0,0,1,1,2,2,3,3,5,5,7,7,8,8,11,11,12,12,13,13,14,14,15,15,16,16,17,17,19,19,20,20],"right_children":[2,4,6,8,-1,10,-1,12,14,-1,-1,16,18,20,22,24,26,28,-1,30,32,-1,-1,-1,-1,-1,-1,-1,-1,-1,-1,-1,-1],"split_conditions":[9.95E2,4E0,4.001E3,1E0,-2.1012518E-1,3.9121E2,-2.6302302E-1,8.5E1,3.366E1,-6.5561175E-2,9.540067E-2,1.092E3,1E0,1.1E1,2.71E2,1.75E2,1.53036E3,1E0,-3.0546144E-2,5.4E1,-1.224348E2,9.065765E-2,-2.937565E-1,-1.4214483E-1,7.3183134E-2,-2.717837E-1,8.5049525E-2,3.291598E-1,4.1605797E-2,-6.126676E-2,-2.56697E-1,-1.9094962E-1,1.2619007E-1],"split_indices":[8,35,36,23,0,33,0,67,16,0,0,69,55,19,8,8,33,5,0,2,11,0,0,0,0,0,0,0,0,0,0,0,0],"split_type":[0,0,0,0,0,0,0,0,0,0,0,0,0,0,0,0,0,0,0,0,0,0,0,0,0,0,0,0,0,0,0,0,0],"sum_hessian":[8.559173E1,8.031767E1,5.2740507E0,7.7992165E1,2.325508E0,2.042951E0,3.2310994E0,5.7724964E1,2.0267202E1,1.0301249E0,1.0128263E0,5.1955105E1,5.7698593E0,1.4514887E1,5.752315E0,4.6015865E1,5.939238E0,4.213287E0,1.5565726E0,3.070811E0,1.1444076E1,1.1434697E0,4.608845E0,6.0818686E0,3.9934E1,3.8913927E0,2.0478454E0,2.9176204E0,1.2956662E0,1.5056959E0,1.565115E0,1.2529058E0,1.019117E1],"tree_param":{"num_deleted":"0","num_feature":"91","num_nodes":"33","size_leaf_vector":"1"}},{"base_weights":[-3.765803E-2,2.1134622E-1,-6.734189E-2,-2.337141E-2,-4.535715E-1,-5.7033855E-1,1.689073E-2,1.0549139E-1,-7.04009E-1,-8.9772743E-1,1.1115844E-1,1.043053E-1,-2.3803727E-1,-8.401452E-2,1.4945875E-1,-1.1598142E-2,-2.5006208E-1,-3.0640322E-1,-7.9371065E-2,-4.2078964E-2,4.4608974E-1,-6.6957146E-1,5.527991E-4,-4.0156856E-2,2.1419145E-1,1.877858E-1,-1.9697842E-1,-2.9164085E-1,1.514207E-1,-6.911656E-2,1.7901999E-1],"categories":[],"categories_nodes":[],"categories_segments":[],"categories_sizes":[],"default_left":[0,0,0,0,0,0,0,0,0,0,0,0,0,0,0,0,0,0,0,0,0,0,0,0,0,0,0,0,0,0,0],"id":21,"left_children":[1,-1,3,5,7,9,11,13,15,17,-1,19,21,-1,-1,-1,-1,-1,-1,23,25,27,29,-1,-1,-1,-1,-1,-1,-1,-1],"loss_changes":[1.9169481E0,0E0,1.3906736E0,1.6642108E0,1.2474355E0,1.9282495E0,1.6059667E0,6.6367185E-1,4.7773862E-1,5.342722E-2,0E0,2.6970131E0,1.8970838E0,0E0,0E0,0E0,0E0,0E0,0E0,2.759563E0,3.611708E0,2.8213687E0,1.9083778E0,0E0,0E0,0E0,0E0,0E0,0E0,0E0,0E0],"parents":[2147483647,0,0,2,2,3,3,4,4,5,5,6,6,7,7,8,8,9,9,11,11,12,12,19,19,20,20,21,21,22,22],"right_children":[2,-1,4,6,8,10,12,14,16,18,-1,20,22,-1,-1,-1,-1,-1,-1,24,26,28,30,-1,-1,-1,-1,-1,-1,-1,-1],"split_conditions":[3E0,2.1134622E-1,1E0,9.0291E4,9.1789E4,6.5E1,1E0,5.4E1,5.06E0,4.1E1,1.1115844E-1,1E0,1.4E1,-8.401452E-2,1.4945875E-1,-1.1598142E-2,-2.5006208E-1,-3.0640322E-1,-7.9371065E-2,9E1,4E0,7.14809E3,2.61E2,-4.0156856E-2,2.1419145E-1,1.877858E-1,-1.9697842E-1,-2.9164085E-1,1.514207E-1,-6.911656E-2,1.7901999E-1],"split_indices":[35,0,6,9,9,2,23,67,16,67,0,5,19,0,0,0,0,0,0,67,13,34,82,0,0,0,0,0,0,0,0],"split_type":[0,0,0,0,0,0,0,0,0,0,0,0,0,0,0,0,0,0,0,0,0,0,0,0,0,0,0,0,0,0,0],"sum_hessian":[8.386286E1,2.3509989E0,8.1511856E1,7.4132706E1,7.3791575E0,4.1800795E0,6.995262E1,2.4619675E0,4.9171896E0,3.1350436E0,1.0450357E0,5.253073E1,1.7421892E1,1.3870732E0,1.0748944E0,1.0128849E0,3.904305E0,2.1099946E0,1.0250491E0,3.739259E1,1.5138141E1,5.559729E0,1.1862164E1,3.4078716E1,3.3138735E0,1.3386892E1,1.751248E0,4.5576067E0,1.0021228E0,8.992366E0,2.8697972E0],"tree_param":{"num_deleted":"0","num_feature":"91","num_nodes":"31","size_leaf_vector":"1"}},{"base_weights":[-3.2297954E-2,1.9040233E-1,-1.1139911E-1,-1.6083728E-1,6.153219E-1,-4.4082263E-1,-3.0448094E-2,3.0428335E-1,-6.207075E-1,-1.6993207E-1,8.168665E-1,-6.720077E-1,3.114464E-1,1.2681295E-1,-2.6157406E-1,6.385423E-1,-1.8581888E-1,-2.8677478E-1,8.487687E-2,1.0775342E0,8.413061E-2,-1.7894295E-1,-8.843289E-1,-1.1014465E-1,2.2491057E-1,-4.9486154E-1,2.9001307E-1,-6.0544854E-1,2.2709832E-1,-4.5402233E-2,2.8385264E-1,6.0048703E-2,-1.6623454E-1,3.694363E-1,5.338491E-2,-1.0789632E-1,1.4314653E-1,1.4683132E-1,-2.0768769E-1,1.0966504E-2,-3.4656188E-1,3.580135E-2,-6.691572E-1,1.0969139E-1,8.8278913E-1,-9.7609246E-1,-1.9878365E-1,9.302139E-1,-1.09479286E-1,-1.3793625E-2,-2.4402271E-1,-3.0813444E-2,1.4576916E-1,3.4881708E-1,1.7831272E-2,-3.2792497E-1,-5.5520434E-2,1.7568646E-1,-1.269007E-1,3.892964E-1,3.9099697E-2,2.4331753E-1,-1.8387169E-1],"categories":[],"categories_nodes":[],"categories_segments":[],"categories_sizes":[],"default_left":[0,0,0,0,0,0,0,0,0,0,0,0,0,0,0,0,0,0,0,0,0,0,0,0,0,0,0,0,0,0,0,0,0,0,0,0,0,0,0,0,0,0,0,0,0,0,0,0,0,0,0,0,0,0,0,0,0,0,0,0,0,0,0],"id":22,"left_children":[1,3,5,7,9,11,13,15,17,-1,19,21,23,25,27,29,31,-1,-1,33,35,37,39,-1,-1,41,43,45,47,-1,-1,-1,-1,-1,-1,-1,-1,-1,-1,-1,-1,-1,49,51,53,55,57,59,61,-1,-1,-1,-1,-1,-1,-1,-1,-1,-1,-1,-1,-1,-1],"loss_changes":[1.4623797E0,3.3543E0,1.6132603E0,2.912567E0,2.86299E0,2.2890604E0,1.8520098E0,1.2656952E0,2.309602E0,0E0,1.6319575E0,8.3254004E-1,1.3145051E0,3.233133E0,3.5972185E0,1.2094884E0,6.2461346E-1,0E0,0E0,6.9024754E-1,7.73569E-1,1.7464164E0,1.629147E0,0E0,0E0,7.972673E-1,2.5487947E0,1.668571E0,2.2863963E0,0E0,0E0,0E0,0E0,0E0,0E0,0E0,0E0,0E0,0E0,0E0,0E0,0E0,4.4546938E-1,1.6576173E0,1.2287822E0,3.7232733E-1,1.5049149E0,7.401254E-1,3.8047407E0,0E0,0E0,0E0,0E0,0E0,0E0,0E0,0E0,0E0,0E0,0E0,0E0,0E0,0E0],"parents":[2147483647,0,0,1,1,2,2,3,3,4,4,5,5,6,6,7,7,8,8,10,10,11,11,12,12,13,13,14,14,15,15,16,16,19,19,20,20,21,21,22,22,25,25,26,26,27,27,28,28,42,42,43,43,44,44,45,45,46,46,47,47,48,48],"right_children":[2,4,6,8,10,12,14,16,18,-1,20,22,24,26,28,30,32,-1,-1,34,36,38,40,-1,-1,42,44,46,48,-1,-1,-1,-1,-1,-1,-1,-1,-1,-1,-1,-1,-1,50,52,54,56,58,60,62,-1,-1,-1,-1,-1,-1,-1,-1,-1,-1,-1,-1,-1,-1],"split_conditions":[2.6530612E-1,4.105E3,3.8235295E-1,1.6E1,1E0,9.41E1,8.91E1,5.4E1,6.1E1,-1.6993207E-1,6.77E2,5.48E2,3.4084747E1,1.8620593E-2,7.06468E3,2.09E1,3.6878708E1,-2.8677478E-1,8.487687E-2,9.5228E4,1.9E1,3.7E1,2.07E2,-1.1014465E-1,2.2491057E-1,2.5E1,3.72777E3,3.9E1,1.2E1,-4.5402233E-2,2.8385264E-1,6.0048703E-2,-1.6623454E-1,3.694363E-1,5.338491E-2,-1.0789632E-1,1.4314653E-1,1.4683132E-1,-2.0768769E-1,1.0966504E-2,-3.4656188E-1,3.580135E-2,6.7E1,1E0,4.102E1,1.49E2,3.3782345E1,8.34829E3,4.414E3,-1.3793625E-2,-2.4402271E-1,-3.0813444E-2,1.4576916E-1,3.4881708E-1,1.7831272E-2,-3.2792497E-1,-5.5520434E-2,1.7568646E-1,-1.269007E-1,3.892964E-1,3.9099697E-2,2.4331753E-1,-1.8387169E-1],"split_indices":[66,36,66,19,51,29,29,2,2,0,82,8,10,68,34,29,10,0,0,9,19,2,82,0,0,2,34,67,19,0,0,0,0,0,0,0,0,0,0,0,0,0,82,17,16,82,10,34,36,0,0,0,0,0,0,0,0,0,0,0,0,0,0],"split_type":[0,0,0,0,0,0,0,0,0,0,0,0,0,0,0,0,0,0,0,0,0,0,0,0,0,0,0,0,0,0,0,0,0,0,0,0,0,0,0,0,0,0,0,0,0,0,0,0,0,0,0,0,0,0,0,0,0,0,0,0,0,0,0],"sum_hessian":[8.0810936E1,2.0811487E1,5.9999447E1,1.1733792E1,9.077696E0,1.0958633E1,4.9040813E1,6.001798E0,5.7319937E0,1.0588144E0,8.018881E0,8.464149E0,2.4944844E0,2.9452372E1,1.9588442E1,3.388144E0,2.6136541E0,4.1388097E0,1.5931841E0,5.5676503E0,2.4512308E0,3.1023905E0,5.3617587E0,1.0425102E0,1.4519744E0,5.7015085E0,2.3750862E1,1.1357384E1,8.231057E0,1.0921003E0,2.2960439E0,1.499094E0,1.11456E0,4.439185E0,1.1284653E0,1.1911477E0,1.260083E0,1.3679281E0,1.7344624E0,1.415301E0,3.9464576E0,1.3300096E0,4.371499E0,1.9119717E1,4.6311455E0,5.209283E0,6.148101E0,2.0936496E0,6.137408E0,1.0695791E0,3.3019197E0,1.2684901E1,6.4348154E0,3.1484938E0,1.4826517E0,4.205449E0,1.0038339E0,1.0084195E0,5.1396813E0,1.0082037E0,1.0854458E0,1.9537717E0,4.183636E0],"tree_param":{"num_deleted":"0","num_feature":"91","num_nodes":"63","size_leaf_vector":"1"}},{"base_weights":[-2.400779E-2,1.9974431E-1,-5.0492335E-2,-7.264997E-3,-4.351854E-1,-6.287873E-2,7.1290064E-1,-2.1737252E-1,-4.3883182E-2,-1.1273569E-1,4.1338974E-1,2.8254712E-1,8.322239E-3,-2.0694791E-1,3.8506246E-1,-7.422644E-2,-2.1373975E-1,9.798954E-1,-1.502476E-1,1.5738513E-1,2.1451646E-2,2.7260223E-2,-6.955958E-2,7.473601E-2,3.818605E-1,-2.0200436E-1,1.8019387E-1],"categories":[],"categories_nodes":[],"categories_segments":[],"categories_sizes":[],"default_left":[0,0,0,0,0,0,0,0,0,0,0,0,0,0,0,0,0,0,0,0,0,0,0,0,0,0,0],"id":23,"left_children":[1,-1,3,5,7,9,11,-1,13,15,17,-1,-1,-1,19,21,-1,23,25,-1,-1,-1,-1,-1,-1,-1,-1],"loss_changes":[1.4667526E0,0E0,1.2685226E0,2.838976E0,8.410574E-1,1.6062499E0,7.710278E-1,0E0,1.4685415E0,1.3384566E0,2.203063E0,0E0,0E0,0E0,1.04733765E-1,1.5233791E0,0E0,3.988495E-1,2.012723E0,0E0,0E0,0E0,0E0,0E0,0E0,0E0,0E0],"parents":[2147483647,0,0,2,2,3,3,4,4,5,5,6,6,8,8,9,9,10,10,14,14,15,15,17,17,18,18],"right_children":[2,-1,4,6,8,10,12,-1,14,16,18,-1,-1,-1,20,22,-1,24,26,-1,-1,-1,-1,-1,-1,-1,-1],"split_conditions":[3E0,1.9974431E-1,-1.1717827E2,-1.17299644E2,1E0,1E0,2.68E2,-2.1737252E-1,1.183E1,7.12E2,1E1,2.8254712E-1,8.322239E-3,-2.0694791E-1,3.2984394E1,1.65345E3,-2.1373975E-1,2.392E1,4.556E3,1.5738513E-1,2.1451646E-2,2.7260223E-2,-6.955958E-2,7.473601E-2,3.818605E-1,-2.0200436E-1,1.8019387E-1],"split_indices":[35,0,11,11,57,47,82,0,16,82,19,0,0,0,10,30,0,16,36,0,0,0,0,0,0,0,0],"split_type":[0,0,0,0,0,0,0,0,0,0,0,0,0,0,0,0,0,0,0,0,0,0,0,0,0,0,0],"sum_hessian":[7.744355E1,1.9708421E0,7.547271E1,6.8764626E1,6.708084E0,6.468231E1,4.0823083E0,3.3665974E0,3.3414867E0,5.924382E1,5.438496E0,2.7791455E0,1.3031626E0,1.0907506E0,2.2507362E0,5.6725204E1,2.5186136E0,2.344023E0,3.094473E0,1.0917265E0,1.1590097E0,2.791433E1,2.8810877E1,1.2003224E0,1.1437006E0,1.8847549E0,1.209718E0],"tree_param":{"num_deleted":"0","num_feature":"91","num_nodes":"27","size_leaf_vector":"1"}},{"base_weights":[-1.280394E-2,-2.0509335E-1,7.7543475E-2,9.1559294E-4,-4.745639E-1,1.22427106E-1,-4.1739932E-1,-3.146419E-1,4.2213005E-1,-6.9847244E-1,2.6619336E-1,5.8769155E-1,5.4144755E-2,3.883825E-2,-1.9118698E-1,-5.16353E-1,9.934931E-2,7.329721E-1,-1.02279596E-1,3.140305E-5,-7.95897E-1,2.2488734E-1,-1.14080064E-1,1.3191376E-2,3.0821276E-1,-5.8564574E-1,1.065433E-1,-7.763878E-1,1.1478948E-1,9.037369E-1,2.533063E-2,-2.635718E-1,-9.299408E-2,1.3074303E-1,-1.0080259E-1,-2.2110581E-1,-3.4336522E-2,1.88147E-1,-3.4673685E-1,-2.6333067E-1,-4.820241E-2,4.665688E-2,3.5196713E-1,-1.9893584E-1,8.458493E-2,-2.2795266E-1,3.568379E-2],"categories":[],"categories_nodes":[],"categories_segments":[],"categories_sizes":[],"default_left":[0,0,0,0,0,0,0,0,0,0,0,0,0,0,0,0,0,0,0,0,0,0,0,0,0,0,0,0,0,0,0,0,0,0,0,0,0,0,0,0,0,0,0,0,0,0,0],"id":24,"left_children":[1,3,5,7,9,11,13,15,17,19,21,23,25,-1,-1,27,-1,29,-1,-1,31,-1,-1,33,-1,35,37,39,-1,41,-1,-1,-1,-1,-1,-1,-1,43,45,-1,-1,-1,-1,-1,-1,-1,-1],"loss_changes":[1.3487821E0,1.3771216E0,1.2267699E0,2.1335769E0,1.9683757E0,1.5342715E0,6.389009E-1,1.3666574E0,1.8803643E0,5.8049536E-1,1.2908819E0,1.5544012E0,1.5404197E0,0E0,0E0,2.0233953E0,0E0,4.9978065E-1,0E0,0E0,2.8337955E-2,0E0,0E0,6.93079E-1,0E0,1.6467178E-1,1.6038824E0,2.371211E-1,0E0,6.2700987E-1,0E0,0E0,0E0,0E0,0E0,0E0,0E0,3.0535474E0,1.3789014E0,0E0,0E0,0E0,0E0,0E0,0E0,0E0,0E0],"parents":[2147483647,0,0,1,1,2,2,3,3,4,4,5,5,6,6,7,7,8,8,9,9,10,10,11,11,12,12,15,15,17,17,20,20,23,23,25,25,26,26,27,27,29,29,37,37,38,38],"right_children":[2,4,6,8,10,12,14,16,18,20,22,24,26,-1,-1,28,-1,30,-1,-1,32,-1,-1,34,-1,36,38,40,-1,42,-1,-1,-1,-1,-1,-1,-1,44,46,-1,-1,-1,-1,-1,-1,-1,-1],"split_conditions":[1E0,5.3664E2,1.8E3,4.474E3,3.851257E1,7.3E1,2.3E1,5.9E1,5.8E1,3.3477924E1,1.2E2,1.02E3,9E1,3.883825E-2,-1.9118698E-1,1E0,9.934931E-2,7.87E2,-1.02279596E-1,3.140305E-5,1E0,2.2488734E-1,-1.14080064E-1,2.16E2,3.0821276E-1,7.43E1,9.36E2,1.6207E3,1.1478948E-1,3.4062126E1,2.533063E-2,-2.635718E-1,-9.299408E-2,1.3074303E-1,-1.0080259E-1,-2.2110581E-1,-3.4336522E-2,-1.224348E2,2.6052775E-2,-2.6333067E-1,-4.820241E-2,4.665688E-2,3.5196713E-1,-1.9893584E-1,8.458493E-2,-2.2795266E-1,3.568379E-2],"split_indices":[28,33,69,36,10,82,2,2,2,10,82,69,8,0,0,47,0,8,0,0,85,0,0,69,0,29,69,34,0,10,0,0,0,0,0,0,0,11,68,0,0,0,0,0,0,0,0],"split_type":[0,0,0,0,0,0,0,0,0,0,0,0,0,0,0,0,0,0,0,0,0,0,0,0,0,0,0,0,0,0,0,0,0,0,0,0,0,0,0,0,0,0,0,0,0,0,0],"sum_hessian":[7.572192E1,2.3799212E1,5.1922707E1,1.4052639E1,9.746573E0,4.829568E1,3.6270247E0,8.178578E0,5.87406E0,7.52813E0,2.2184432E0,5.207291E0,4.308839E1,1.1581055E0,2.4689193E0,6.3848014E0,1.793777E0,4.20183E0,1.6722304E0,1.0436466E0,6.4844832E0,1.1779639E0,1.0404794E0,2.7040842E0,2.5032072E0,2.491403E0,4.0596985E1,5.0580993E0,1.3267024E0,3.0145686E0,1.1872612E0,4.851038E0,1.6334453E0,1.1112145E0,1.5928695E0,1.4586399E0,1.0327631E0,3.4899055E1,5.697931E0,3.9775565E0,1.0805426E0,1.2158743E0,1.7986943E0,2.8614955E0,3.203756E1,2.6846848E0,3.013246E0],"tree_param":{"num_deleted":"0","num_feature":"91","num_nodes":"47","size_leaf_vector":"1"}},{"base_weights":[-1.9587727E-2,-2.1366353E-1,3.2145537E-3,4.4428736E-2,-4.0649587E-1,-4.4427612E-1,7.805571E-2,2.710221E-2,-6.3822985E-1,4.3942045E-2,-6.607063E-1,1.1346058E-1,-4.0248072E-1,-1.5605074E-1,1.529813E-1,-5.7219215E-2,-2.1450822E-1,-2.4496521E-1,-5.130403E-2,-2.8466618E-2,2.6306278E-1,-1.9678703E-1,4.3605316E-2,3.3074994E-2,-1.8032205E-1,1.4833443E-1,-2.1987703E-2],"categories":[],"categories_nodes":[],"categories_segments":[],"categories_sizes":[],"default_left":[0,0,0,0,0,0,0,0,0,0,0,0,0,0,0,0,0,0,0,0,0,0,0,0,0,0,0],"id":25,"left_children":[1,-1,3,5,7,9,11,13,15,-1,17,19,21,-1,-1,-1,-1,-1,-1,23,25,-1,-1,-1,-1,-1,-1],"loss_changes":[1.1780673E0,0E0,1.2519127E0,1.1405488E0,6.9825435E-1,6.697836E-1,1.1313088E0,1.1424607E0,1.6808033E-2,0E0,1.24522686E-1,1.2859592E0,7.339386E-1,0E0,0E0,0E0,0E0,0E0,0E0,2.5922432E0,2.325254E0,0E0,0E0,0E0,0E0,0E0,0E0],"parents":[2147483647,0,0,2,2,3,3,4,4,5,5,6,6,7,7,8,8,10,10,11,11,12,12,19,19,20,20],"right_children":[2,-1,4,6,8,10,12,14,16,-1,18,20,22,-1,-1,-1,-1,-1,-1,24,26,-1,-1,-1,-1,-1,-1],"split_conditions":[3.274186E1,-2.1366353E-1,1E0,9.0291E4,1.826E2,9.6E1,9.95E2,5.095E1,9.1775E4,4.3942045E-2,3.01E2,2.392E1,1E0,-1.5605074E-1,1.529813E-1,-5.7219215E-2,-2.1450822E-1,-2.4496521E-1,-5.130403E-2,1.727E1,8.72E1,-1.9678703E-1,4.3605316E-2,3.3074994E-2,-1.8032205E-1,1.4833443E-1,-2.1987703E-2],"split_indices":[10,0,6,9,33,82,8,29,9,0,82,16,85,0,0,0,0,0,0,16,29,0,0,0,0,0,0],"split_type":[0,0,0,0,0,0,0,0,0,0,0,0,0,0,0,0,0,0,0,0,0,0,0,0,0,0,0],"sum_hessian":[7.344738E1,1.3773024E0,7.207008E1,6.6293E1,5.7770805E0,3.4816635E0,6.2811337E1,2.3197103E0,3.4573703E0,1.020211E0,2.4614525E0,5.921257E1,3.5987644E0,1.0510606E0,1.2686497E0,1.0166874E0,2.440683E0,1.3608787E0,1.1005737E0,3.0801237E1,2.8411333E1,2.3254392E0,1.2733253E0,2.5444624E1,5.3566146E0,1.6553698E1,1.18576355E1],"tree_param":{"num_deleted":"0","num_feature":"91","num_nodes":"27","size_leaf_vector":"1"}},{"base_weights":[-2.8978065E-2,-7.2969764E-2,3.6860716E-1,-5.1831305E-1,-3.395647E-2,7.2262615E-1,-2.6709732E-1,-2.1700166E-1,4.757067E-2,-7.636241E-2,2.4165775E-1,6.3821554E-2,2.857354E-1,7.56947E-2,-1.8260406E-1,-2.2756852E-2,-6.2439716E-1,-1.1204593E-1,2.732654E-1,-1.2857609E-2,-2.3861922E-1,3.8585924E-2,-9.681861E-2,-1.3776526E-1,1.3375421E-1],"categories":[],"categories_nodes":[],"categories_segments":[],"categories_sizes":[],"default_left":[0,0,0,0,0,0,0,0,0,0,0,0,0,0,0,0,0,0,0,0,0,0,0,0,0],"id":26,"left_children":[1,3,5,7,9,11,13,-1,-1,15,-1,-1,-1,-1,-1,17,19,21,23,-1,-1,-1,-1,-1,-1],"loss_changes":[1.3175561E0,1.1512649E0,1.8846629E0,8.569834E-1,2.3016443E0,3.947749E-1,7.601563E-1,0E0,0E0,1.7723763E0,0E0,0E0,0E0,0E0,0E0,1.5222476E0,5.0098157E-1,2.2758045E0,1.8946716E0,0E0,0E0,0E0,0E0,0E0,0E0],"parents":[2147483647,0,0,1,1,2,2,3,3,4,4,5,5,6,6,9,9,15,15,16,16,17,17,18,18],"right_children":[2,4,6,8,10,12,14,-1,-1,16,-1,-1,-1,-1,-1,18,20,22,24,-1,-1,-1,-1,-1,-1],"split_conditions":[1.031E2,1.6260698E-2,1.0695E2,3.8684437E1,2.310345E0,7.29861E3,4.556E3,-2.1700166E-1,4.757067E-2,1.312E3,2.4165775E-1,6.3821554E-2,2.857354E-1,7.56947E-2,-1.8260406E-1,5.95E2,4.06E2,1.9164E2,2.7E1,-1.2857609E-2,-2.3861922E-1,3.8585924E-2,-9.681861E-2,-1.3776526E-1,1.3375421E-1],"split_indices":[29,68,29,10,66,34,36,0,0,69,0,0,0,0,0,69,8,33,2,0,0,0,0,0,0],"split_type":[0,0,0,0,0,0,0,0,0,0,0,0,0,0,0,0,0,0,0,0,0,0,0,0,0],"sum_hessian":[7.279222E1,6.627549E1,6.516731E0,4.3487077E0,6.1926785E1,4.0979056E0,2.4188254E0,3.285043E0,1.0636647E0,5.9814335E1,2.1124482E0,1.8714904E0,2.2264154E0,1.0632994E0,1.355526E0,5.5433662E1,4.3806725E0,4.306537E1,1.2368296E1,1.2796088E0,3.1010635E0,2.0284094E1,2.2781275E1,2.0417426E0,1.0326553E1],"tree_param":{"num_deleted":"0","num_feature":"91","num_nodes":"25","size_leaf_vector":"1"}},{"base_weights":[-2.3186876E-2,1.9029488E-1,-4.8167333E-2,-6.8143825E-3,-3.9918402E-1,-9.491789E-2,3.1106424E-1,-6.375737E-1,-1.1351865E-2,1.2544324E-1,-1.9240522E-1,5.129752E-1,-5.9525037E-1,-2.2597428E-1,-3.3782516E-2,1.2401334E-1,-9.956049E-2,7.362426E-1,-1.1508331E-1,-5.266251E-2,-6.0045856E-1,7.3871934E-1,-2.1692755E-2,-2.5421715E-1,-1.4162838E-2,5.0739027E-3,2.83728E-1,-1.5709326E-1,9.3435325E-2,-7.053058E-2,9.151378E-2,-2.4594624E-1,5.663962E-2,2.5253057E-1,1.7419405E-2,1.6024514E-1,-1.9343285E-1],"categories":[],"categories_nodes":[],"categories_segments":[],"categories_sizes":[],"default_left":[0,0,0,0,0,0,0,0,0,0,0,0,0,0,0,0,0,0,0,0,0,0,0,0,0,0,0,0,0,0,0,0,0,0,0,0,0],"id":27,"left_children":[1,-1,3,5,7,9,11,13,15,17,19,21,23,-1,-1,-1,-1,25,27,29,31,33,35,-1,-1,-1,-1,-1,-1,-1,-1,-1,-1,-1,-1,-1,-1],"loss_changes":[1.2186449E0,0E0,1.022331E0,1.8273047E0,6.7926E-1,1.1203362E0,2.8973508E0,1.9332445E-1,6.6058296E-1,2.472965E0,2.0081706E0,1.4789848E0,3.805586E-1,0E0,0E0,0E0,0E0,6.965766E-1,2.3462906E0,1.882195E0,1.7180395E0,5.5090094E-1,1.9270929E0,0E0,0E0,0E0,0E0,0E0,0E0,0E0,0E0,0E0,0E0,0E0,0E0,0E0,0E0],"parents":[2147483647,0,0,2,2,3,3,4,4,5,5,6,6,7,7,8,8,9,9,10,10,11,11,12,12,17,17,18,18,19,19,20,20,21,21,22,22],"right_children":[2,-1,4,6,8,10,12,14,16,18,20,22,24,-1,-1,-1,-1,26,28,30,32,34,36,-1,-1,-1,-1,-1,-1,-1,-1,-1,-1,-1,-1,-1,-1],"split_conditions":[3E0,1.9029488E-1,2E0,1E0,1.038E3,2.9323636E-2,4.226E1,-1.17734566E2,1.131E3,4E1,4.7945204E-1,4.3E1,4.467E1,-2.2597428E-1,-3.3782516E-2,1.2401334E-1,-9.956049E-2,1.4E1,1E0,1E0,7.8E1,1E0,-1.2064127E2,-2.5421715E-1,-1.4162838E-2,5.0739027E-3,2.83728E-1,-1.5709326E-1,9.3435325E-2,-7.053058E-2,9.151378E-2,-2.4594624E-1,5.663962E-2,2.5253057E-1,1.7419405E-2,1.6024514E-1,-1.9343285E-1],"split_indices":[35,0,13,12,76,68,16,11,76,14,66,14,16,0,0,0,0,19,1,17,67,6,11,0,0,0,0,0,0,0,0,0,0,0,0,0,0],"split_type":[0,0,0,0,0,0,0,0,0,0,0,0,0,0,0,0,0,0,0,0,0,0,0,0,0,0,0,0,0,0,0,0,0,0,0,0,0],"sum_hessian":[7.133555E1,1.7182229E0,6.9617325E1,6.319213E1,6.425193E0,5.002779E1,1.3164342E1,3.5804482E0,2.8447447E0,1.5256074E1,3.4771717E1,1.1120818E1,2.0435243E0,2.5776272E0,1.002821E0,1.0988665E0,1.7458781E0,3.7280374E0,1.1528036E1,2.674249E1,8.029224E0,7.551029E0,3.5697887E0,1.0254997E0,1.0180244E0,1.0846988E0,2.6433384E0,5.77179E0,5.7562466E0,1.7936981E1,8.80551E0,6.252666E0,1.7765585E0,6.352564E0,1.1984651E0,1.9621316E0,1.6076572E0],"tree_param":{"num_deleted":"0","num_feature":"91","num_nodes":"37","size_leaf_vector":"1"}},{"base_weights":[-1.9524595E-2,3.6283494E-3,-1.845754E-1,-3.471988E-2,3.4478617E-1,5.7201978E-2,-2.7927682E-1,6.1210054E-1,-1.8808153E-1,-1.1997192E-1,2.1813414E-1,9.314384E-2,-5.786646E-1,2.4394739E-1,3.014198E-2,6.847299E-2,-1.5196395E-1,5.9399065E-2,-6.049436E-1,3.0206716E-1,-1.4856377E-1,-5.2119297E-1,4.6803337E-1,-7.2361416E-1,2.0389734E-2,-1.5268093E-1,8.000082E-2,4.421512E-2,-2.674966E-1,1.5744169E-1,-1.0617025E-2,6.381389E-2,-2.6316082E-1,-1.0655336E-1,2.3093481E-1,2.3260135E-3,-2.5022542E-1],"categories":[],"categories_nodes":[],"categories_segments":[],"categories_sizes":[],"default_left":[0,0,0,0,0,0,0,0,0,0,0,0,0,0,0,0,0,0,0,0,0,0,0,0,0,0,0,0,0,0,0,0,0,0,0,0,0],"id":28,"left_children":[1,3,-1,5,7,9,11,13,15,17,19,21,23,-1,-1,-1,-1,25,27,29,-1,31,33,35,-1,-1,-1,-1,-1,-1,-1,-1,-1,-1,-1,-1,-1],"loss_changes":[9.562535E-1,8.9603335E-1,0E0,1.4019804E0,1.1007931E0,1.3275417E0,1.9508513E0,4.164945E-1,5.23527E-1,1.9818618E0,1.6028196E0,2.188485E0,9.4617176E-1,0E0,0E0,0E0,0E0,2.1666274E0,1.4534805E0,1.6975803E0,0E0,1.1462352E0,1.706785E0,6.4502764E-1,0E0,0E0,0E0,0E0,0E0,0E0,0E0,0E0,0E0,0E0,0E0,0E0,0E0],"parents":[2147483647,0,0,1,1,3,3,4,4,5,5,6,6,7,7,8,8,9,9,10,10,11,11,12,12,17,17,18,18,19,19,21,21,22,22,23,23],"right_children":[2,4,-1,6,8,10,12,14,16,18,20,22,24,-1,-1,-1,-1,26,28,30,-1,32,34,36,-1,-1,-1,-1,-1,-1,-1,-1,-1,-1,-1,-1,-1],"split_conditions":[4E0,1.031E2,-1.845754E-1,1E0,1.0695E2,4.165E3,4.121E3,9.36E2,4.556E3,1E0,9.54E2,5.01E2,3.861905E1,2.4394739E-1,3.014198E-2,6.847299E-2,-1.5196395E-1,1E0,1E2,1.65345E3,-1.4856377E-1,8E1,8.194E2,2.6530612E-1,2.0389734E-2,-1.5268093E-1,8.000082E-2,4.421512E-2,-2.674966E-1,1.5744169E-1,-1.0617025E-2,6.381389E-2,-2.6316082E-1,-1.0655336E-1,2.3093481E-1,2.3260135E-3,-2.5022542E-1],"split_indices":[35,29,0,22,29,36,36,69,36,21,8,8,10,0,0,0,0,51,82,30,0,29,30,66,0,0,0,0,0,0,0,0,0,0,0,0,0],"split_type":[0,0,0,0,0,0,0,0,0,0,0,0,0,0,0,0,0,0,0,0,0,0,0,0,0,0,0,0,0,0,0,0,0,0,0,0,0],"sum_hessian":[6.816792E1,6.657442E1,1.5935079E0,6.0654682E1,5.919729E0,4.4641384E1,1.6013302E1,3.8431249E0,2.0766044E0,2.136961E1,2.3271774E1,7.4432387E0,8.570063E0,2.3358393E0,1.5072857E0,1.0228059E0,1.0537984E0,1.6240456E1,5.1291533E0,2.133771E1,1.934065E0,2.6728854E0,4.7703533E0,6.9035087E0,1.666554E0,3.9511032E0,1.2289352E1,1.5494281E0,3.5797253E0,1.2519225E1,8.818483E0,1.0045455E0,1.66834E0,1.232063E0,3.5382903E0,1.0279315E0,5.8755774E0],"tree_param":{"num_deleted":"0","num_feature":"91","num_nodes":"37","size_leaf_vector":"1"}},{"base_weights":[-2.6865117E-2,1.7760907E-1,-4.940883E-2,3.3661017E-1,-7.8948125E-2,-1.1203016E-1,7.0709765E-1,-2.2767131E-1,3.1166371E-2,3.0189183E-2,3.1005865E-1,-5.263252E-1,2.0428112E-2,-8.2160704E-2,3.1454444E-1,9.108148E-2,-7.605201E-1,3.0199412E-1,-5.157455E-1,5.720834E-2,-8.342196E-1,4.361706E-1,-1.0407661E-1,1.5431577E-1,-1.8623367E-1,-2.5988662E-1,-4.683678E-2,-1.2477359E-2,2.891475E-1,7.0887715E-2,-2.2217159E-1,-1.2883993E-2,1.8542744E-1,-3.1038627E-1,-8.7911E-2,1.8516281E-1,-2.0378897E-2],"categories":[],"categories_nodes":[],"categories_segments":[],"categories_sizes":[],"default_left":[0,0,0,0,0,0,0,0,0,0,0,0,0,0,0,0,0,0,0,0,0,0,0,0,0,0,0,0,0,0,0,0,0,0,0,0,0],"id":29,"left_children":[1,-1,3,5,7,-1,9,11,13,-1,-1,15,17,19,21,23,25,27,29,31,33,35,-1,-1,-1,-1,-1,-1,-1,-1,-1,-1,-1,-1,-1,-1,-1],"loss_changes":[9.674091E-1,0E0,7.768811E-1,1.5444603E0,1.021351E0,0E0,5.9760654E-1,1.971922E0,1.1969038E0,0E0,0E0,1.8112895E0,2.4837284E0,2.8610404E0,1.0060492E0,1.5867983E0,4.2995548E-1,2.4826407E0,1.1351612E0,1.3511847E0,1.5889764E-1,9.013463E-1,0E0,0E0,0E0,0E0,0E0,0E0,0E0,0E0,0E0,0E0,0E0,0E0,0E0,0E0,0E0],"parents":[2147483647,0,0,2,2,3,3,4,4,6,6,7,7,8,8,11,11,12,12,13,13,14,14,15,15,16,16,17,17,18,18,19,19,20,20,21,21],"right_children":[2,-1,4,6,8,-1,10,12,14,-1,-1,16,18,20,22,24,26,28,30,32,34,36,-1,-1,-1,-1,-1,-1,-1,-1,-1,-1,-1,-1,-1,-1,-1],"split_conditions":[3E0,1.7760907E-1,1.985E1,2.435E1,7.52E1,-1.1203016E-1,6.95E2,4E-1,2.85E2,3.0189183E-2,3.1005865E-1,3.4002644E1,4.6E1,2.11E2,-1.173725E2,2.25E2,1E0,1E0,1.33815E3,1.76E2,3.659627E1,7.12E2,-1.0407661E-1,1.5431577E-1,-1.8623367E-1,-2.5988662E-1,-4.683678E-2,-1.2477359E-2,2.891475E-1,7.0887715E-2,-2.2217159E-1,-1.2883993E-2,1.8542744E-1,-3.1038627E-1,-8.7911E-2,1.8516281E-1,-2.0378897E-2],"split_indices":[35,0,29,16,29,0,8,66,82,0,0,10,14,82,11,69,24,26,30,82,10,82,0,0,0,0,0,0,0,0,0,0,0,0,0,0,0],"split_type":[0,0,0,0,0,0,0,0,0,0,0,0,0,0,0,0,0,0,0,0,0,0,0,0,0,0,0,0,0,0,0,0,0,0,0,0,0],"sum_hessian":[6.624084E1,1.4402425E0,6.48006E1,3.8673103E0,6.0933285E1,1.323278E0,2.5440323E0,2.5468012E1,3.5465275E1,1.347964E0,1.1960682E0,1.1047711E1,1.44203005E1,2.5841103E1,9.624171E0,3.2062297E0,7.841481E0,9.741444E0,4.678857E0,2.2580492E1,3.2606103E0,8.417091E0,1.2070798E0,2.1845834E0,1.0216461E0,6.304836E0,1.5366453E0,7.029355E0,2.7120883E0,1.0651063E0,3.6137507E0,1.9942804E1,2.637688E0,1.7140987E0,1.5465117E0,6.0278997E0,2.389192E0],"tree_param":{"num_deleted":"0","num_feature":"91","num_nodes":"37","size_leaf_vector":"1"}},{"base_weights":[-2.244306E-2,1.2063656E-2,-3.929246E-1,-4.3624574E-1,4.351717E-2,-8.9168146E-2,-1.8771099E-1,1.3198654E-2,-1.9001612E-1,5.505511E-1,1.3037665E-2,-1.4114694E-1,9.42846E-2,2.910773E-1,-4.6457265E-2,-1.1745896E-1,1.6420038E-1,-2.238213E-1,4.2631757E-1,2.5892976E-1,-1.9458064E-1,3.660337E-2,-1.6456142E-1,2.2813848E-1,-1.1418295E-1,1.6432865E-1,1.5745532E-2],"categories":[],"categories_nodes":[],"categories_segments":[],"categories_sizes":[],"default_left":[0,0,0,0,0,0,0,0,0,0,0,0,0,0,0,0,0,0,0,0,0,0,0,0,0,0,0],"id":30,"left_children":[1,3,5,7,9,11,-1,-1,-1,13,15,-1,-1,-1,-1,17,19,21,23,25,-1,-1,-1,-1,-1,-1,-1],"loss_changes":[8.333882E-1,8.6878973E-1,3.3682126E-1,4.1052312E-1,8.7717384E-1,6.978939E-1,0E0,0E0,0E0,1.1037649E0,1.1043006E0,0E0,0E0,0E0,0E0,1.8364773E0,2.1622195E0,2.9679823E0,1.7101316E0,1.397077E0,0E0,0E0,0E0,0E0,0E0,0E0,0E0],"parents":[2147483647,0,0,1,1,2,2,3,3,4,4,5,5,9,9,10,10,15,15,16,16,17,17,18,18,19,19],"right_children":[2,4,6,8,10,12,-1,-1,-1,14,16,-1,-1,-1,-1,18,20,22,24,26,-1,-1,-1,-1,-1,-1,-1],"split_conditions":[1E0,9.0291E4,3.0377E2,2.651E3,9.0723E4,1.04524E3,-1.8771099E-1,1.3198654E-2,-1.9001612E-1,5E0,1E0,-1.4114694E-1,9.42846E-2,2.910773E-1,-4.6457265E-2,3.81922E3,1E0,9.1986E2,5.2E1,2.72525E3,-1.9458064E-1,3.660337E-2,-1.6456142E-1,2.2813848E-1,-1.1418295E-1,1.6432865E-1,1.5745532E-2],"split_indices":[6,9,33,36,9,34,0,0,0,19,17,0,0,0,0,34,49,34,2,34,0,0,0,0,0,0,0],"split_type":[0,0,0,0,0,0,0,0,0,0,0,0,0,0,0,0,0,0,0,0,0,0,0,0,0,0,0],"sum_hessian":[6.381864E1,5.926603E1,4.552611E0,3.0417788E0,5.622425E1,2.5752227E0,1.977388E0,1.1113454E0,1.9304334E0,2.220625E0,5.4003624E1,1.238493E0,1.3367298E0,1.1568586E0,1.0637662E0,2.9102669E1,2.4900957E1,2.4833624E1,4.269046E0,2.291207E1,1.9888879E0,1.23281E1,1.2505523E1,3.0596473E0,1.2093987E0,8.861216E0,1.4050853E1],"tree_param":{"num_deleted":"0","num_feature":"91","num_nodes":"27","size_leaf_vector":"1"}},{"base_weights":[-2.1640211E-2,1.6589119E-1,-4.1973427E-2,-6.718138E-2,4.415432E-1,-6.666952E-3,-4.870536E-1,-8.075984E-2,2.75468E-1,-4.8136212E-2,4.515501E-1,-6.5016034E-3,-2.2693346E-1,1.8415293E-1,-1.2867013E-1,-3.131673E-2,2.1646002E-1,-8.403989E-2,8.368984E-2,-4.8269648E-2,1.4432433E-1,1.0014029E-1,-6.1983936E-2],"categories":[],"categories_nodes":[],"categories_segments":[],"categories_sizes":[],"default_left":[0,0,0,0,0,0,0,0,0,0,0,0,0,0,0,0,0,0,0,0,0,0,0],"id":31,"left_children":[1,-1,3,5,7,9,11,-1,-1,13,15,17,-1,19,21,-1,-1,-1,-1,-1,-1,-1,-1],"loss_changes":[7.6125866E-1,0E0,7.846131E-1,1.5146067E0,1.3317668E0,1.0331523E0,9.674802E-1,0E0,0E0,9.536909E-1,7.5279737E-1,3.6770254E-1,0E0,1.4308078E0,1.420841E0,0E0,0E0,0E0,0E0,0E0,0E0,0E0,0E0],"parents":[2147483647,0,0,2,2,3,3,4,4,5,5,6,6,9,9,10,10,11,11,13,13,14,14],"right_children":[2,-1,4,6,8,10,12,-1,-1,14,16,18,-1,20,22,-1,-1,-1,-1,-1,-1,-1,-1],"split_conditions":[3E0,1.6589119E-1,6.261E3,1E0,1E0,7.3E1,7.1E1,-8.075984E-2,2.75468E-1,1.06E2,1E0,8.14E2,-2.2693346E-1,2.49E1,2.38E0,-3.131673E-2,2.1646002E-1,-8.403989E-2,8.368984E-2,-4.8269648E-2,1.4432433E-1,1.0014029E-1,-6.1983936E-2],"split_indices":[35,0,36,53,44,2,82,0,0,82,51,8,0,16,16,0,0,0,0,0,0,0,0],"split_type":[0,0,0,0,0,0,0,0,0,0,0,0,0,0,0,0,0,0,0,0,0,0,0],"sum_hessian":[6.216916E1,1.2294629E0,6.0939693E1,5.8738445E1,2.2012491E0,5.222706E1,6.5113883E0,1.0584093E0,1.1428398E0,4.871338E1,3.5136774E0,2.7068768E0,3.8045118E0,1.2209651E1,3.650373E1,1.3490714E0,2.164606E0,1.391633E0,1.3152437E0,5.859091E0,6.3505607E0,4.791421E0,3.1712309E1],"tree_param":{"num_deleted":"0","num_feature":"91","num_nodes":"23","size_leaf_vector":"1"}},{"base_weights":[-9.428157E-3,2.6838863E-2,-3.432036E-1,-5.0268173E-2,3.0563688E-1,-5.06564E-1,2.5251145E-2,-1.4001586E-1,1.539688E-1,4.5992553E-1,-1.2334305E-1,-2.0910941E-1,-4.625181E-3,-6.3400215E-1,-4.8736602E-2,4.4781536E-1,-2.5276566E-1,6.522219E-1,6.73785E-3,-2.51971E-1,1.6790237E-2,1.2245108E-1,-3.4069616E-1,7.410948E-1,-3.152947E-1,-1.9875737E-1,3.0736579E-2,3.6970846E-2,7.896571E-1,-1.21713676E-1,1.2206974E-1,1.5917679E-3,2.7144104E-1,-1.5206897E-1,9.496776E-2,2.7150998E-1,-2.2118663E-2,-1.2382721E-1,-1.6725764E-2,1.4505377E-1,-1.1159873E-1,2.6851866E-1,7.724936E-2],"categories":[],"categories_nodes":[],"categories_segments":[],"categories_sizes":[],"default_left":[0,0,0,0,0,0,0,0,0,0,0,0,0,0,0,0,0,0,0,0,0,0,0,0,0,0,0,0,0,0,0,0,0,0,0,0,0,0,0,0,0,0,0],"id":32,"left_children":[1,3,5,7,9,11,-1,13,15,17,-1,-1,-1,19,21,23,25,27,29,-1,-1,31,33,35,37,-1,39,-1,41,-1,-1,-1,-1,-1,-1,-1,-1,-1,-1,-1,-1,-1,-1],"loss_changes":[7.552496E-1,1.2303392E0,4.6940786E-1,8.4881467E-1,1.5588555E0,4.1628385E-1,0E0,1.406488E0,1.8168085E0,9.2493105E-1,0E0,0E0,0E0,7.4148583E-1,1.4406178E0,2.1664982E0,7.891426E-1,4.462459E-1,8.5619074E-1,0E0,0E0,1.6796603E0,1.3194281E0,9.3995833E-1,5.5383414E-2,0E0,1.0673877E0,0E0,9.2042685E-2,0E0,0E0,0E0,0E0,0E0,0E0,0E0,0E0,0E0,0E0,0E0,0E0,0E0,0E0],"parents":[2147483647,0,0,1,1,2,2,3,3,4,4,5,5,7,7,8,8,9,9,13,13,14,14,15,15,16,16,17,17,18,18,21,21,22,22,23,23,24,24,26,26,28,28],"right_children":[2,4,6,8,10,12,-1,14,16,18,-1,-1,-1,20,22,24,26,28,30,-1,-1,32,34,36,38,-1,40,-1,42,-1,-1,-1,-1,-1,-1,-1,-1,-1,-1,-1,-1,-1,-1],"split_conditions":[2E0,1E0,4.022E1,-1.1811253E2,4.226E1,9.41E1,2.5251145E-2,2.7E1,5.2585013E-2,4.3E1,-1.2334305E-1,-2.0910941E-1,-4.625181E-3,3.13091E3,2.4527E3,-1.1717827E2,1E0,3.6E1,3.763336E1,-2.51971E-1,1.6790237E-2,1.97166E3,9.583E4,5.9E1,2.3E1,-1.9875737E-1,3.3674583E1,3.6970846E-2,1E0,-1.21713676E-1,1.2206974E-1,1.5917679E-3,2.7144104E-1,-1.5206897E-1,9.496776E-2,2.7150998E-1,-2.2118663E-2,-1.2382721E-1,-1.6725764E-2,1.4505377E-1,-1.1159873E-1,2.6851866E-1,7.724936E-2],"split_indices":[13,12,16,11,16,29,0,2,68,14,0,0,0,34,34,11,57,2,10,0,0,34,9,2,67,0,10,0,22,0,0,0,0,0,0,0,0,0,0,0,0,0,0],"split_type":[0,0,0,0,0,0,0,0,0,0,0,0,0,0,0,0,0,0,0,0,0,0,0,0,0,0,0,0,0,0,0,0,0,0,0,0,0,0,0,0,0,0,0],"sum_hessian":[6.0630394E1,5.551761E1,5.112784E0,4.4131794E1,1.1385813E1,3.5648527E0,1.5479311E0,3.0877684E1,1.3254111E1,9.663967E0,1.7218462E0,2.266651E0,1.2982016E0,3.8884387E0,2.6989246E1,7.6362658E0,5.6178455E0,6.4766226E0,3.1873446E0,2.827384E0,1.0610546E0,1.737952E1,9.609726E0,5.5370927E0,2.0991733E0,1.7506385E0,3.867207E0,1.7268175E0,4.749805E0,1.5627407E0,1.6246039E0,1.5991779E1,1.3877401E0,7.852762E0,1.7569636E0,4.5174866E0,1.0196059E0,1.0969285E0,1.0022448E0,1.7260722E0,2.141135E0,3.3953438E0,1.3544612E0],"tree_param":{"num_deleted":"0","num_feature":"91","num_nodes":"43","size_leaf_vector":"1"}},{"base_weights":[-9.098474E-3,2.8222932E-2,-3.016458E-1,2.7477282E-1,-2.5611479E-2,7.837655E-2,-4.4817162E-1,7.294347E-2,2.3917836E-1,2.2407705E-2,-1.9107267E-1,2.6631309E-2,-1.985782E-1,-4.00409E-1,3.2029697E-1,5.5677168E-2,-1.5312731E-1,-4.321054E-3,-1.7110409E-1,-6.0127333E-2,4.8096263E-1,1.0029368E-2,5.0370234E-1,2.9803893E-2,1.9617258E-1,-1.4897617E-2,1.1293697E-1,2.0343886E-1,2.352519E-2],"categories":[],"categories_nodes":[],"categories_segments":[],"categories_sizes":[],"default_left":[0,0,0,0,0,0,0,0,0,0,0,0,0,0,0,0,0,0,0,0,0,0,0,0,0,0,0,0,0],"id":33,"left_children":[1,3,5,7,9,-1,11,13,-1,15,-1,-1,-1,17,19,21,-1,-1,-1,-1,23,25,27,-1,-1,-1,-1,-1,-1],"loss_changes":[6.599604E-1,7.215103E-1,6.809295E-1,9.6817315E-1,1.3380512E0,0E0,7.235875E-1,1.0791332E0,0E0,7.867565E-1,0E0,0E0,0E0,2.0377648E-1,5.89129E-1,8.368524E-1,0E0,0E0,0E0,0E0,2.5150096E-1,8.5811675E-1,2.2768354E-1,0E0,0E0,0E0,0E0,0E0,0E0],"parents":[2147483647,0,0,1,1,2,2,3,3,4,4,6,6,7,7,9,9,13,13,14,14,15,15,20,20,21,21,22,22],"right_children":[2,4,6,8,10,-1,12,14,-1,16,-1,-1,-1,18,20,22,-1,-1,-1,-1,24,26,28,-1,-1,-1,-1,-1,-1],"split_conditions":[1E0,1.9160707E-2,-1.22286224E2,1.8620593E-2,4.6E1,7.837655E-2,3.3674583E1,5.08465E3,2.3917836E-1,1E0,-1.9107267E-1,2.6631309E-2,-1.985782E-1,4.507E3,9.2102E4,7.2E1,-1.5312731E-1,-4.321054E-3,-1.7110409E-1,-6.0127333E-2,5.98575E3,1E0,3.3E1,2.9803893E-2,1.9617258E-1,-1.4897617E-2,1.1293697E-1,2.0343886E-1,2.352519E-2],"split_indices":[20,68,11,68,14,0,10,30,0,53,0,0,0,36,9,2,0,0,0,0,30,47,67,0,0,0,0,0,0],"split_type":[0,0,0,0,0,0,0,0,0,0,0,0,0,0,0,0,0,0,0,0,0,0,0,0,0,0,0,0,0],"sum_hessian":[5.8665737E1,5.282959E1,5.83615E0,8.732518E0,4.409707E1,1.043684E0,4.792466E0,7.121282E0,1.6112357E0,4.1778584E1,2.318485E0,1.5311095E0,3.2613566E0,2.2317264E0,4.889556E0,4.016616E1,1.6124246E0,1.0137658E0,1.2179606E0,1.0945687E0,3.794987E0,3.738002E1,2.7861404E0,1.6745094E0,2.1204777E0,3.28874E1,4.4926186E0,1.554178E0,1.2319624E0],"tree_param":{"num_deleted":"0","num_feature":"91","num_nodes":"29","size_leaf_vector":"1"}},{"base_weights":[-5.810031E-3,1.5761338E-1,-2.521872E-2,1.0069347E-2,-3.2607305E-1,-1.7916214E-1,8.739558E-2,6.0103536E-2,-4.7531182E-1,2.6930995E-2,-6.823782E-1,2.2131714E-1,2.5594104E-2,1.7797543E-2,-2.1718207E-1,-2.1332291E-1,2.496141E-1,-2.430703E-1,-3.950254E-2,-3.4316796E-1,8.791337E-2,1.5773764E-1,-8.4992275E-2,5.624119E-2,-1.8973824E-1,4.451717E-2,-8.1089675E-2],"categories":[],"categories_nodes":[],"categories_segments":[],"categories_sizes":[],"default_left":[0,0,0,0,0,0,0,0,0,0,0,0,0,0,0,0,0,0,0,0,0,0,0,0,0,0,0],"id":34,"left_children":[1,-1,3,5,7,9,11,-1,13,15,17,-1,19,-1,-1,-1,21,-1,-1,23,25,-1,-1,-1,-1,-1,-1],"loss_changes":[6.142009E-1,0E0,6.1044043E-1,7.7883214E-1,5.6924516E-1,1.6215028E0,1.4962488E0,0E0,7.072437E-1,2.1378524E0,2.1222544E-1,0E0,8.451293E-1,0E0,0E0,0E0,1.6066058E0,0E0,0E0,9.368612E-1,7.1453935E-1,0E0,0E0,0E0,0E0,0E0,0E0],"parents":[2147483647,0,0,2,2,3,3,4,4,5,5,6,6,8,8,9,9,10,10,12,12,16,16,19,19,20,20],"right_children":[2,-1,4,6,8,10,12,-1,14,16,18,-1,20,-1,-1,-1,22,-1,-1,24,26,-1,-1,-1,-1,-1,-1],"split_conditions":[3E0,1.5761338E-1,1E0,6.514E2,-1.22286224E2,6.8945E2,9.1986E2,6.0103536E-2,3.3674583E1,2.98E2,7.57E1,2.2131714E-1,1.37115E3,1.7797543E-2,-2.1718207E-1,-2.1332291E-1,9.455E4,-2.430703E-1,-3.950254E-2,2.2950819E-1,4.403E1,1.5773764E-1,-8.4992275E-2,5.624119E-2,-1.8973824E-1,4.451717E-2,-8.1089675E-2],"split_indices":[35,0,20,30,11,34,34,0,10,8,29,0,34,0,0,0,9,0,0,66,16,0,0,0,0,0,0],"split_type":[0,0,0,0,0,0,0,0,0,0,0,0,0,0,0,0,0,0,0,0,0,0,0,0,0,0,0],"sum_hessian":[5.7290127E1,1.100546E0,5.6189583E1,5.115589E1,5.03369E0,1.4457868E1,3.6698025E1,1.0361996E0,3.9974906E0,1.0928543E1,3.5293248E0,2.2356458E0,3.446238E1,1.51059E0,2.4869006E0,2.0248027E0,8.90374E0,2.481845E0,1.0474799E0,4.3305554E0,3.0131823E1,5.87335E0,3.03039E0,1.652115E0,2.6784403E0,2.6280602E1,3.8512223E0],"tree_param":{"num_deleted":"0","num_feature":"91","num_nodes":"27","size_leaf_vector":"1"}},{"base_weights":[-1.3180766E-2,5.979694E-3,-1.5575953E-1,-2.642606E-1,4.1612323E-2,1.1857939E-1,-1.7914462E-1,3.7393585E-1,-8.486149E-3,-1.1287492E-1,1.7452827E-1,-2.2754809E-2,7.44627E-1,-1.9260745E-1,5.2223757E-2,-3.5179082E-1,1.4706221E-1,2.7083674E-1,6.072377E-2,1.7744435E-1,7.009858E-3,2.8689554E-2,-1.831068E-1,-8.7207176E-2,2.264447E-2],"categories":[],"categories_nodes":[],"categories_segments":[],"categories_sizes":[],"default_left":[0,0,0,0,0,0,0,0,0,0,0,0,0,0,0,0,0,0,0,0,0,0,0,0,0],"id":35,"left_children":[1,3,-1,5,7,9,-1,11,13,-1,-1,15,17,-1,19,21,-1,-1,-1,-1,23,-1,-1,-1,-1],"loss_changes":[5.520647E-1,5.4583895E-1,0E0,9.127608E-1,8.345581E-1,1.1143625E0,0E0,9.8217857E-1,1.7401803E0,0E0,0E0,8.714067E-1,1.10800266E-1,0E0,1.005677E0,4.175883E-1,0E0,0E0,0E0,0E0,8.215045E-1,0E0,0E0,0E0,0E0],"parents":[2147483647,0,0,1,1,3,3,4,4,5,5,7,7,8,8,11,11,12,12,14,14,15,15,20,20],"right_children":[2,4,-1,6,8,10,-1,12,14,-1,-1,16,18,-1,20,22,-1,-1,-1,-1,24,-1,-1,-1,-1],"split_conditions":[4E0,4.1115E2,-1.5575953E-1,2.43E1,6.8945E2,1E0,-1.7914462E-1,1.5E1,6.3855E2,-1.1287492E-1,1.7452827E-1,5.9E1,3.8E1,-1.9260745E-1,9.1986E2,3.12E2,1.4706221E-1,2.7083674E-1,6.072377E-2,1.7744435E-1,1.5744E2,2.8689554E-2,-1.831068E-1,-8.7207176E-2,2.264447E-2],"split_indices":[35,34,0,29,34,54,0,67,30,0,0,2,67,0,34,82,0,0,0,0,33,0,0,0,0],"split_type":[0,0,0,0,0,0,0,0,0,0,0,0,0,0,0,0,0,0,0,0,0,0,0,0,0],"sum_hessian":[5.5619907E1,5.4542816E1,1.0770919E0,5.6064982E0,4.8936317E1,2.9070332E0,2.699465E0,5.5640035E0,4.3372314E1,1.4962422E0,1.4107912E0,3.1411521E0,2.4228513E0,2.9554462E0,4.041687E1,2.1050682E0,1.0360839E0,1.3608825E0,1.0619688E0,2.191959E0,3.822491E1,1.0017602E0,1.103308E0,6.5409293E0,3.168398E1],"tree_param":{"num_deleted":"0","num_feature":"91","num_nodes":"25","size_leaf_vector":"1"}},{"base_weights":[-1.1109384E-2,1.3212041E-2,-3.959997E-1,-6.229462E-2,1.9379391E-1,-1.6623306E-1,-6.6097206E-3,1.2558314E-1,-1.5495893E-1,4.3452784E-1,-1.0620093E-1,-1.5601738E-1,3.00677E-1,1.7768206E-1,-2.9485464E-1,5.3866345E-1,-4.738019E-2,-2.703001E-1,9.1896296E-2,-2.4302946E-1,5.206652E-1,5.905121E-1,-2.326061E-1,-4.3947667E-1,1.5328936E-1,6.921616E-1,-5.0058477E-2,-1.9630481E-1,1.0117993E-1,-1.8810193E-1,3.4176253E-2,-4.523341E-3,1.9078322E-1,1.5494967E-2,2.5386858E-1,-2.0006599E-1,4.806802E-2,-1.8565544E-1,-5.1643946E-3,1.548843E-1,-1.04828574E-1,3.9195888E-2,2.3548514E-1,1.5214884E-1,-1.10432416E-1],"categories":[],"categories_nodes":[],"categories_segments":[],"categories_sizes":[],"default_left":[0,0,0,0,0,0,0,0,0,0,0,0,0,0,0,0,0,0,0,0,0,0,0,0,0,0,0,0,0,0,0,0,0,0,0,0,0,0,0,0,0,0,0,0,0],"id":36,"left_children":[1,3,5,7,9,-1,-1,11,13,15,17,-1,19,21,23,25,-1,27,-1,29,31,33,35,37,39,41,-1,-1,43,-1,-1,-1,-1,-1,-1,-1,-1,-1,-1,-1,-1,-1,-1,-1,-1],"loss_changes":[5.2431196E-1,7.3640966E-1,1.8456995E-1,6.847938E-1,1.1948845E0,0E0,0E0,1.645825E0,1.2642137E0,6.416471E-1,6.1657864E-1,0E0,1.4420307E0,1.5488814E0,1.2798331E0,9.709654E-1,0E0,9.467963E-1,0E0,5.991007E-1,5.1283E-1,5.6762135E-1,9.422851E-1,1.0801954E0,1.1485894E0,2.455895E-1,0E0,0E0,9.4946843E-1,0E0,0E0,0E0,0E0,0E0,0E0,0E0,0E0,0E0,0E0,0E0,0E0,0E0,0E0,0E0,0E0],"parents":[2147483647,0,0,1,1,2,2,3,3,4,4,7,7,8,8,9,9,10,10,12,12,13,13,14,14,15,15,17,17,19,19,20,20,21,21,22,22,23,23,24,24,25,25,28,28],"right_children":[2,4,6,8,10,-1,-1,12,14,16,18,-1,20,22,24,26,-1,28,-1,30,32,34,36,38,40,42,-1,-1,44,-1,-1,-1,-1,-1,-1,-1,-1,-1,-1,-1,-1,-1,-1,-1,-1],"split_conditions":[4E0,1E0,9.41E1,9.213E4,-1.1917565E2,-1.6623306E-1,-6.6097206E-3,-1.1838712E2,1.1295E2,1E0,9.91E1,-1.5601738E-1,1.424E2,9.455E4,6.2E1,1E0,-4.738019E-2,1E0,9.1896296E-2,1E0,9.1E1,7E0,2.68E2,9.5367E4,3.4E2,1.04E2,-5.0058477E-2,-1.9630481E-1,2.35E2,-1.8810193E-1,3.4176253E-2,-4.523341E-3,1.9078322E-1,1.5494967E-2,2.5386858E-1,-2.0006599E-1,4.806802E-2,-1.8565544E-1,-5.1643946E-3,1.548843E-1,-1.04828574E-1,3.9195888E-2,2.3548514E-1,1.5214884E-1,-1.10432416E-1],"split_indices":[13,5,29,9,11,0,0,11,33,6,29,0,33,9,2,23,0,51,0,60,82,67,82,9,69,69,0,0,69,0,0,0,0,0,0,0,0,0,0,0,0,0,0,0,0],"split_type":[0,0,0,0,0,0,0,0,0,0,0,0,0,0,0,0,0,0,0,0,0,0,0,0,0,0,0,0,0,0,0,0,0,0,0,0,0,0,0,0,0,0,0,0,0],"sum_hessian":[5.445086E1,5.212286E1,2.327998E0,3.7216545E1,1.4906314E1,1.297653E0,1.0303451E0,1.2175453E1,2.5041092E1,8.021182E0,6.885132E0,2.177174E0,9.998279E0,7.3335147E0,1.7707579E1,6.899312E0,1.1218706E0,5.172356E0,1.7127755E0,2.8499122E0,7.1483665E0,3.4364812E0,3.8970335E0,1.3401936E1,4.305642E0,5.682036E0,1.217276E0,2.1687546E0,3.0036018E0,1.0084943E0,1.8414179E0,1.4197E0,5.728667E0,1.4927801E0,1.9437011E0,1.5195366E0,2.377497E0,9.079462E0,4.3224735E0,2.4846215E0,1.8210205E0,1.1472938E0,4.5347424E0,1.5671483E0,1.4364533E0],"tree_param":{"num_deleted":"0","num_feature":"91","num_nodes":"45","size_leaf_vector":"1"}},{"base_weights":[-1.353511E-2,-1.22106336E-1,8.3748875E-3,3.6795028E-2,-3.1270698E-1,4.094351E-1,4.086505E-3,-8.110647E-3,-1.4551352E-1,1.3920261E-2,1.7193237E-1,5.2331407E-2,-2.5764644E-1,-1.9374134E-2,2.7971286E-1,2.5631735E-1,-5.2910423E-1,2.6517244E-2,-1.06367454E-1,-1.2624136E-2,1.5328452E-1,-4.5413908E-2,1.622132E-1,-1.9507334E-1,-1.7534629E-2],"categories":[],"categories_nodes":[],"categories_segments":[],"categories_sizes":[],"default_left":[0,0,0,0,0,0,0,0,0,0,0,0,0,0,0,0,0,0,0,0,0,0,0,0,0],"id":37,"left_children":[1,-1,3,5,7,9,11,-1,-1,-1,-1,13,15,17,19,21,23,-1,-1,-1,-1,-1,-1,-1,-1],"loss_changes":[4.6052286E-1,0E0,4.7876012E-1,5.8259255E-1,1.9706109E-1,2.0264328E-1,5.826932E-1,0E0,0E0,0E0,0E0,6.3955194E-1,1.138028E0,1.1331692E0,7.201609E-1,4.4787726E-1,2.4866045E-1,0E0,0E0,0E0,0E0,0E0,0E0,0E0,0E0],"parents":[2147483647,0,0,2,2,3,3,4,4,5,5,6,6,11,11,12,12,13,13,14,14,15,15,16,16],"right_children":[2,-1,4,6,8,10,12,-1,-1,-1,-1,14,16,18,20,22,24,-1,-1,-1,-1,-1,-1,-1,-1],"split_conditions":[-1.22770676E2,-1.22106336E-1,-1.17120865E2,3.3477924E1,8.91E1,1E0,1.092E3,-8.110647E-3,-1.4551352E-1,1.3920261E-2,1.7193237E-1,5.7E2,7.6E1,2.4527E3,9.3662E4,1E0,1.02E2,2.6517244E-2,-1.06367454E-1,-1.2624136E-2,1.5328452E-1,-4.5413908E-2,1.622132E-1,-1.9507334E-1,-1.7534629E-2],"split_indices":[11,0,11,10,29,51,69,0,0,0,0,69,82,34,9,52,67,0,0,0,0,0,0,0,0],"split_type":[0,0,0,0,0,0,0,0,0,0,0,0,0,0,0,0,0,0,0,0,0,0,0,0,0],"sum_hessian":[5.202162E1,1.8167787E0,5.0204845E1,4.6935787E1,3.269057E0,2.857969E0,4.407782E1,1.6653726E0,1.6036844E0,1.2869496E0,1.5710194E0,3.789309E1,6.184727E0,2.9503769E1,8.389322E0,2.1568456E0,4.027882E0,2.2882963E1,6.620805E0,3.8498251E0,4.539497E0,1.0784806E0,1.0783648E0,2.8999126E0,1.1279693E0],"tree_param":{"num_deleted":"0","num_feature":"91","num_nodes":"25","size_leaf_vector":"1"}},{"base_weights":[-1.2808544E-2,-4.077927E-2,3.18252E-1,2.1687572E-4,-5.4432005E-1,1.5874742E-1,-1.18304E-2,4.240132E-2,-3.7171257E-1,-2.2575326E-1,-9.794649E-3,-1.271034E-1,1.5052503E-1,-1.4713757E-1,9.7977035E-3,-5.082766E-3,-5.135452E-1,3.5203535E-2,4.1493237E-1,5.0636392E-2,-7.542904E-2,7.7989284E-4,-2.0782892E-1,6.264083E-2,-1.2691817E-1,-1.9212527E-2,1.810905E-1],"categories":[],"categories_nodes":[],"categories_segments":[],"categories_sizes":[],"default_left":[0,0,0,0,0,0,0,0,0,0,0,0,0,0,0,0,0,0,0,0,0,0,0,0,0,0,0],"id":38,"left_children":[1,3,5,7,9,-1,-1,11,13,-1,-1,15,17,-1,-1,19,21,23,25,-1,-1,-1,-1,-1,-1,-1,-1],"loss_changes":[4.9516854E-1,1.0096142E0,3.3547026E-1,7.4093604E-1,3.6766243E-1,0E0,0E0,7.963881E-1,2.4701428E-1,0E0,0E0,8.017733E-1,7.8887236E-1,0E0,0E0,6.4102167E-1,3.7955666E-1,1.634935E0,7.5357723E-1,0E0,0E0,0E0,0E0,0E0,0E0,0E0,0E0],"parents":[2147483647,0,0,1,1,2,2,3,3,4,4,7,7,8,8,11,11,12,12,15,15,16,16,17,17,18,18],"right_children":[2,4,6,8,10,-1,-1,12,14,-1,-1,16,18,-1,-1,20,22,24,26,-1,-1,-1,-1,-1,-1,-1,-1],"split_conditions":[4.616E1,4.328E1,4.228E3,1E0,4.806E3,1.5874742E-1,-1.18304E-2,7.015E1,1.059E2,-2.2575326E-1,-9.794649E-3,8.64E2,8.5E2,-1.4713757E-1,9.7977035E-3,2.73E2,2.395E1,6.02E2,1E0,5.0636392E-2,-7.542904E-2,7.7989284E-4,-2.0782892E-1,6.264083E-2,-1.2691817E-1,-1.9212527E-2,1.810905E-1],"split_indices":[16,16,36,20,36,0,0,29,29,0,0,8,8,0,0,82,29,8,78,0,0,0,0,0,0,0,0],"split_type":[0,0,0,0,0,0,0,0,0,0,0,0,0,0,0,0,0,0,0,0,0,0,0,0,0,0,0],"sum_hessian":[5.1072376E1,4.790204E1,3.1703372E0,4.521999E1,2.6820498E0,1.6928039E0,1.4775333E0,4.1409317E1,3.810672E0,1.5718124E0,1.1102372E0,1.6058693E1,2.5350626E1,2.7810967E0,1.0295753E0,1.297495E1,3.0837421E0,1.8440798E1,6.909829E0,7.7909636E0,5.183986E0,1.0487759E0,2.0349662E0,1.3769143E1,4.671654E0,2.139604E0,4.770225E0],"tree_param":{"num_deleted":"0","num_feature":"91","num_nodes":"27","size_leaf_vector":"1"}},{"base_weights":[-1.7414594E-2,1.5099579E-1,-3.8040027E-2,2.9137775E-1,-6.6707574E-2,-4.5799375E-2,1.8070441E-1,3.1656134E-1,-9.297311E-2,1.9604361E-1,-5.930625E-2,-2.1274625E-1,3.2118626E-2,-1.4535063E-2,-5.7382274E-1,-2.873165E-1,1.8636863E-1,-4.0347904E-2,1.1620258E-1,-2.153625E-1,3.1207029E-2,4.3243333E-3,-1.552378E-1,1.11898325E-1,-4.815641E-2],"categories":[],"categories_nodes":[],"categories_segments":[],"categories_sizes":[],"default_left":[0,0,0,0,0,0,0,0,0,0,0,0,0,0,0,0,0,0,0,0,0,0,0,0,0],"id":39,"left_children":[1,-1,3,5,7,-1,-1,9,11,-1,-1,13,15,17,19,21,23,-1,-1,-1,-1,-1,-1,-1,-1],"loss_changes":[5.652154E-1,0E0,4.9006245E-1,6.685963E-1,4.9914062E-1,0E0,0E0,6.869976E-1,6.72659E-1,0E0,0E0,1.6258554E0,1.1674154E0,8.122175E-1,8.623085E-1,5.459658E-1,1.0860623E0,0E0,0E0,0E0,0E0,0E0,0E0,0E0,0E0],"parents":[2147483647,0,0,2,2,3,3,4,4,7,7,8,8,11,11,12,12,13,13,14,14,15,15,16,16],"right_children":[2,-1,4,6,8,-1,-1,10,12,-1,-1,14,16,18,20,22,24,-1,-1,-1,-1,-1,-1,-1,-1],"split_conditions":[3E0,1.5099579E-1,1.985E1,4.4325E2,2.227E3,-4.5799375E-2,1.8070441E-1,-1.21457596E2,1E0,1.9604361E-1,-5.930625E-2,9.4028E4,4.105E3,2.8E1,5.436E3,4.6E1,9.36E2,-4.0347904E-2,1.1620258E-1,-2.153625E-1,3.1207029E-2,4.3243333E-3,-1.552378E-1,1.11898325E-1,-4.815641E-2],"split_indices":[35,0,29,33,36,0,0,11,24,0,0,9,36,67,36,2,69,0,0,0,0,0,0,0,0],"split_type":[0,0,0,0,0,0,0,0,0,0,0,0,0,0,0,0,0,0,0,0,0,0,0,0,0],"sum_hessian":[4.9842716E1,1.0073417E0,4.8835377E1,3.1760035E0,4.5659374E1,1.5177872E0,1.6582164E0,2.2195258E0,4.3439846E1,1.1773949E0,1.042131E0,2.1833721E1,2.1606125E1,1.4767454E1,7.066267E0,6.7548637E0,1.4851262E1,1.1885145E1,2.8823087E0,5.7790756E0,1.2871912E0,3.328443E0,3.4264205E0,9.6073065E0,5.243955E0],"tree_param":{"num_deleted":"0","num_feature":"91","num_nodes":"25","size_leaf_vector":"1"}},{"base_weights":[-9.606529E-3,1.3083239E-2,-1.093842E-1,-4.619173E-2,1.5647392E-1,1.5348493E-1,-1.2847315E-1,3.5563397E-1,-9.500356E-2,-1.529243E-1,3.196828E-1,7.0709144E-3,-4.3538576E-1,4.4177797E-1,-3.7301324E-2,-2.3680007E-1,7.341536E-2,4.5284647E-1,-5.7419226E-2,-1.5172888E-1,2.8472856E-1,-5.7211477E-1,-4.5826934E-2,5.57218E-1,-3.4090612E-2,-1.6437325E-1,6.280333E-2,1.877007E-1,-4.73224E-2,-8.177782E-2,1.4869694E-1,-6.978918E-2,1.3528216E-1,-2.2342215E-1,-2.647082E-2,5.1385753E-2,-7.416099E-2,4.1774742E-2,2.0343383E-1,1.1737964E-1,-9.374486E-2],"categories":[],"categories_nodes":[],"categories_segments":[],"categories_sizes":[],"default_left":[0,0,0,0,0,0,0,0,0,0,0,0,0,0,0,0,0,0,0,0,0,0,0,0,0,0,0,0,0,0,0,0,0,0,0,0,0,0,0,0,0],"id":40,"left_children":[1,3,-1,5,7,9,11,13,15,-1,17,19,21,23,-1,25,-1,27,-1,29,31,33,35,37,-1,-1,39,-1,-1,-1,-1,-1,-1,-1,-1,-1,-1,-1,-1,-1,-1],"loss_changes":[4.0401503E-1,4.113986E-1,0E0,5.851712E-1,7.417723E-1,1.3202538E0,1.0396471E0,3.898102E-1,3.9690968E-1,0E0,6.998652E-1,8.486788E-1,3.8121295E-1,5.176854E-1,0E0,5.445173E-1,0E0,8.8428235E-1,0E0,1.0954852E0,7.06349E-1,3.9996088E-1,1.7675729E-1,2.1059716E-1,0E0,0E0,5.765109E-1,0E0,0E0,0E0,0E0,0E0,0E0,0E0,0E0,0E0,0E0,0E0,0E0,0E0,0E0],"parents":[2147483647,0,0,1,1,3,3,4,4,5,5,6,6,7,7,8,8,10,10,11,11,12,12,13,13,15,15,17,17,19,19,20,20,21,21,22,22,23,23,26,26],"right_children":[2,4,-1,6,8,10,12,14,16,-1,18,20,22,24,-1,26,-1,28,-1,30,32,34,36,38,-1,-1,40,-1,-1,-1,-1,-1,-1,-1,-1,-1,-1,-1,-1,-1,-1],"split_conditions":[4E0,1E0,-1.093842E-1,2.9323636E-2,-1.1917565E2,-1.2155403E2,6E0,1E0,9.91E1,-1.529243E-1,8.84E2,2E0,9.7930335E-2,1E0,-3.7301324E-2,1E0,7.341536E-2,5.461E3,-5.7419226E-2,4.283E1,4.8024975E-2,2.4E1,4.6E1,6.65E1,-3.4090612E-2,-1.6437325E-1,2.35E2,1.877007E-1,-4.73224E-2,-8.177782E-2,1.4869694E-1,-6.978918E-2,1.3528216E-1,-2.2342215E-1,-2.647082E-2,5.1385753E-2,-7.416099E-2,4.1774742E-2,2.0343383E-1,1.1737964E-1,-9.374486E-2],"split_indices":[13,5,0,68,11,11,70,6,29,0,8,67,68,23,0,51,0,36,0,16,68,19,67,29,0,0,69,0,0,0,0,0,0,0,0,0,0,0,0,0,0],"split_type":[0,0,0,0,0,0,0,0,0,0,0,0,0,0,0,0,0,0,0,0,0,0,0,0,0,0,0,0,0,0,0,0,0,0,0,0,0,0,0,0,0],"sum_hessian":[4.8564606E1,4.655242E1,2.0121818E0,3.3416527E1,1.3135894E1,9.499128E0,2.39174E1,7.099331E0,6.036563E0,1.489197E0,8.009932E0,1.7268116E1,6.649284E0,6.086515E0,1.012816E0,4.4726706E0,1.5638926E0,6.444689E0,1.5652426E0,1.1273844E1,5.994272E0,4.5749326E0,2.074351E0,5.036461E0,1.0500542E0,1.787612E0,2.6850586E0,5.003721E0,1.4409676E0,9.988053E0,1.2857904E0,1.3603576E0,4.6339145E0,2.974619E0,1.6003138E0,1.0700775E0,1.0042735E0,1.6127002E0,3.423761E0,1.4091488E0,1.2759097E0],"tree_param":{"num_deleted":"0","num_feature":"91","num_nodes":"41","size_leaf_vector":"1"}},{"base_weights":[-1.2349807E-2,1.3288788E-2,-2.9534048E-1,-2.0431649E-2,3.3804402E-1,-1.2792732E-1,-2.967292E-3,-6.385247E-2,3.258508E-1,-2.8282506E-2,1.770927E-1,-2.7120559E-2,-1.5277232E-1,1.8999192E-1,-2.5137445E-2,-2.0610635E-1,5.5720903E-2,-1.366447E-1,2.773447E-2,8.007639E-2,-3.3048E-2],"categories":[],"categories_nodes":[],"categories_segments":[],"categories_sizes":[],"default_left":[0,0,0,0,0,0,0,0,0,0,0,0,0,0,0,0,0,0,0,0,0],"id":41,"left_children":[1,3,5,7,9,-1,-1,11,13,-1,-1,15,-1,-1,-1,17,19,-1,-1,-1,-1],"loss_changes":[3.5107785E-1,4.9782607E-1,1.4612055E-1,6.456259E-1,5.217589E-1,0E0,0E0,6.0396326E-1,6.568478E-1,0E0,0E0,5.443918E-1,0E0,0E0,0E0,9.045892E-1,9.177387E-1,0E0,0E0,0E0,0E0],"parents":[2147483647,0,0,1,1,2,2,3,3,4,4,7,7,8,8,11,11,15,15,16,16],"right_children":[2,4,6,8,10,-1,-1,12,14,-1,-1,16,-1,-1,-1,18,20,-1,-1,-1,-1],"split_conditions":[-1.17120865E2,-1.17299644E2,1.0491E3,1E0,1.91835E3,-1.2792732E-1,-2.967292E-3,6.62E2,1E1,-2.8282506E-2,1.770927E-1,1E0,-1.5277232E-1,1.8999192E-1,-2.5137445E-2,1.7E1,9E0,-1.366447E-1,2.773447E-2,8.007639E-2,-3.3048E-2],"split_indices":[11,11,33,47,34,0,0,82,19,0,0,54,0,0,0,67,67,0,0,0,0],"split_type":[0,0,0,0,0,0,0,0,0,0,0,0,0,0,0,0,0,0,0,0,0],"sum_hessian":[4.6847E1,4.3829174E1,3.0178258E0,4.055527E1,3.273905E0,1.7296622E0,1.2881637E0,3.6761326E1,3.7939453E0,1.4371959E0,1.8367091E0,3.494061E1,1.8207159E0,1.8553903E0,1.938555E0,1.0584331E1,2.435628E1,5.480754E0,5.103576E0,1.0446557E1,1.3909721E1],"tree_param":{"num_deleted":"0","num_feature":"91","num_nodes":"21","size_leaf_vector":"1"}},{"base_weights":[-1.0168547E-2,1.8587446E-2,-2.4656795E-1,-3.1147325E-1,4.679545E-2,-1.2937254E-1,3.132821E-2,-1.513758E-1,1.6834894E-2,2.4356993E-1,-1.3003477E-2,-4.148214E-2,5.556525E-2,5.1442194E-1,-3.77726E-2,-1.0342438E-1,2.0795631E-1,2.311615E-1,1.6958201E-2,-3.7563947E-1,2.7198866E-1,-2.9595917E-1,6.443529E-2,-1.4078934E-1,3.8674393E-1,-1.7664115E-1,8.5328715E-3,1.4369339E-1,-3.5016146E-2,-1.2134762E-2,-1.692771E-1,1.219234E-1,-4.4043876E-2,4.2868227E-2,-1.4688167E-1,1.5443304E-1,-3.254138E-2],"categories":[],"categories_nodes":[],"categories_segments":[],"categories_sizes":[],"default_left":[0,0,0,0,0,0,0,0,0,0,0,0,0,0,0,0,0,0,0,0,0,0,0,0,0,0,0,0,0,0,0,0,0,0,0,0,0],"id":42,"left_children":[1,3,5,7,9,-1,11,-1,-1,13,15,-1,-1,17,19,21,23,-1,-1,25,27,29,31,33,35,-1,-1,-1,-1,-1,-1,-1,-1,-1,-1,-1,-1],"loss_changes":[3.2520622E-1,4.1473356E-1,2.796116E-1,2.7780396E-1,4.7931838E-1,0E0,1.0397197E-1,0E0,0E0,7.41967E-1,6.6051763E-1,0E0,0E0,5.310155E-1,6.864173E-1,7.741587E-1,6.5425307E-1,0E0,0E0,2.829129E-1,3.3689833E-1,7.3542714E-1,1.0206921E0,4.6511853E-1,4.7597528E-1,0E0,0E0,0E0,0E0,0E0,0E0,0E0,0E0,0E0,0E0,0E0,0E0],"parents":[2147483647,0,0,1,1,2,2,3,3,4,4,6,6,9,9,10,10,13,13,14,14,15,15,16,16,19,19,20,20,21,21,22,22,23,23,24,24],"right_children":[2,4,6,8,10,-1,12,-1,-1,14,16,-1,-1,18,20,22,24,-1,-1,26,28,30,32,34,36,-1,-1,-1,-1,-1,-1,-1,-1,-1,-1,-1,-1],"split_conditions":[1E0,-1.224348E2,2.912E1,1E0,-1.21457596E2,-1.2937254E-1,7.06468E3,-1.513758E-1,1.6834894E-2,1.795E1,8.54E2,-4.148214E-2,5.556525E-2,4.107143E-1,-1.2195457E2,4.115E3,3.5526314E-1,2.311615E-1,1.6958201E-2,1.7E1,2.70024E3,9.67E2,4.795E3,9.3268E4,1.0142857E0,-1.7664115E-1,8.5328715E-3,1.4369339E-1,-3.5016146E-2,-1.2134762E-2,-1.692771E-1,1.219234E-1,-4.4043876E-2,4.2868227E-2,-1.4688167E-1,1.5443304E-1,-3.254138E-2],"split_indices":[20,11,16,24,11,0,34,0,0,16,8,0,0,66,11,36,66,0,0,19,34,76,36,9,66,0,0,0,0,0,0,0,0,0,0,0,0],"split_type":[0,0,0,0,0,0,0,0,0,0,0,0,0,0,0,0,0,0,0,0,0,0,0,0,0,0,0,0,0,0,0,0,0,0,0,0,0],"sum_hessian":[4.6165024E1,4.1979897E1,4.1851277E0,2.5146034E0,3.9465294E1,2.1827729E0,2.0023549E0,1.4042132E0,1.1103903E0,8.481827E0,3.0983467E1,1.0008197E0,1.0015352E0,3.8993852E0,4.582442E0,2.2363737E1,8.61973E0,2.0628026E0,1.8365827E0,2.0900648E0,2.492377E0,1.0060837E1,1.2302899E1,2.993364E0,5.6263657E0,1.0690001E0,1.0210646E0,1.4748083E0,1.0175686E0,5.7426558E0,4.3181815E0,4.3450775E0,7.9578214E0,1.9763743E0,1.0169898E0,4.439164E0,1.1872017E0],"tree_param":{"num_deleted":"0","num_feature":"91","num_nodes":"37","size_leaf_vector":"1"}},{"base_weights":[-1.11722E-2,-1.4238133E-1,4.7813978E-2,2.589045E-1,-2.4739772E-1,-4.2285595E-2,1.9094776E-1,-3.3164427E-2,1.500138E-1,7.688147E-2,-4.2518616E-1,-3.1615478E-1,9.588298E-2,-4.8611343E-2,4.593548E-1,-2.912026E-1,1.7863536E-1,4.3042358E-2,-5.354809E-1,-5.455645E-1,5.877019E-2,4.343017E-1,-1.00082666E-1,1.23158045E-1,-1.271497E-1,6.0629296E-1,-4.156666E-2,-1.7377181E-1,3.4487266E-2,-5.921837E-1,-4.5979377E-2,-6.6252E-1,-7.912597E-3,4.678719E-2,1.9549614E-1,3.064931E-1,-2.667008E-1,-1.54271E-1,3.791615E-1,2.222534E-1,2.2711681E-2,-3.4866735E-2,-2.0870866E-1,-2.40561E-1,-3.1995934E-2,-8.732891E-2,1.061787E-1,1.4702658E-1,-5.856366E-3,-1.5343826E-1,4.564535E-2,-1.3472068E-1,5.466911E-2,1.6130428E-1,1.5579585E-2],"categories":[],"categories_nodes":[],"categories_segments":[],"categories_sizes":[],"default_left":[0,0,0,0,0,0,0,0,0,0,0,0,0,0,0,0,0,0,0,0,0,0,0,0,0,0,0,0,0,0,0,0,0,0,0,0,0,0,0,0,0,0,0,0,0,0,0,0,0,0,0,0,0,0,0],"id":43,"left_children":[1,3,5,7,9,11,13,-1,-1,15,17,19,21,23,25,27,-1,-1,29,31,-1,33,35,37,-1,39,-1,-1,-1,41,-1,43,-1,45,-1,47,49,51,53,-1,-1,-1,-1,-1,-1,-1,-1,-1,-1,-1,-1,-1,-1,-1,-1],"loss_changes":[3.6299393E-1,6.7613065E-1,4.2717004E-1,3.6720663E-1,7.2585636E-1,8.159551E-1,8.4119827E-1,0E0,0E0,1.1477093E0,5.7349E-1,9.5206094E-1,1.0095441E0,5.4419214E-1,6.2007535E-1,4.9440923E-1,0E0,0E0,5.755949E-2,3.0028307E-1,0E0,4.3522692E-1,7.617432E-1,4.8543012E-1,0E0,3.0686915E-1,0E0,0E0,0E0,1.9555223E-1,0E0,2.4208963E-1,0E0,4.2102858E-1,0E0,2.120656E-1,8.625768E-1,4.3852732E-1,1.4924982E-1,0E0,0E0,0E0,0E0,0E0,0E0,0E0,0E0,0E0,0E0,0E0,0E0,0E0,0E0,0E0,0E0],"parents":[2147483647,0,0,1,1,2,2,3,3,4,4,5,5,6,6,9,9,10,10,11,11,12,12,13,13,14,14,15,15,18,18,19,19,21,21,22,22,23,23,25,25,29,29,31,31,33,33,35,35,36,36,37,37,38,38],"right_children":[2,4,6,8,10,12,14,-1,-1,16,18,20,22,24,26,28,-1,-1,30,32,-1,34,36,38,-1,40,-1,-1,-1,42,-1,44,-1,46,-1,48,50,52,54,-1,-1,-1,-1,-1,-1,-1,-1,-1,-1,-1,-1,-1,-1,-1,-1],"split_conditions":[1E0,2.789E3,6.9502E2,9.3669E4,1.003E1,4.3E2,-1.1831293E2,-3.3164427E-2,1.500138E-1,1.384E2,1.9517E2,3.755563E1,2.4E-1,1E0,-1.1713492E2,5.2E1,1.7863536E-1,4.3042358E-2,1E0,4.32E2,5.877019E-2,7.55E1,1.57E0,1E0,-1.271497E-1,5.4E1,-4.156666E-2,-1.7377181E-1,3.4487266E-2,3.380187E1,-4.5979377E-2,-1.1732496E2,-7.912597E-3,1E0,1.9549614E-1,4.492E3,1E0,5.324E3,-1.21827675E2,2.222534E-1,2.2711681E-2,-3.4866735E-2,-2.0870866E-1,-2.40561E-1,-3.1995934E-2,-8.732891E-2,1.061787E-1,1.4702658E-1,-5.856366E-3,-1.5343826E-1,4.564535E-2,-1.3472068E-1,5.466911E-2,1.6130428E-1,1.5579585E-2],"split_indices":[28,36,33,9,16,8,11,0,0,33,33,10,66,23,11,2,0,0,44,69,0,29,16,5,0,2,0,0,0,10,0,11,0,55,0,36,22,36,11,0,0,0,0,0,0,0,0,0,0,0,0,0,0,0,0],"split_type":[0,0,0,0,0,0,0,0,0,0,0,0,0,0,0,0,0,0,0,0,0,0,0,0,0,0,0,0,0,0,0,0,0,0,0,0,0,0,0,0,0,0,0,0,0,0,0,0,0,0,0,0,0,0,0],"sum_hessian":[4.5021706E1,1.3524326E1,3.1497381E1,2.5012493E0,1.1023077E1,1.9762127E1,1.1735253E1,1.2016959E0,1.2995533E0,4.1043925E0,6.9186845E0,6.1948667E0,1.3567261E1,6.6335526E0,5.1017003E0,2.6569343E0,1.4474583E0,1.0750555E0,5.843629E0,4.2329783E0,1.9618883E0,4.5292883E0,9.037972E0,5.01126E0,1.6222924E0,4.0840206E0,1.0176797E0,1.3051939E0,1.3517404E0,4.610332E0,1.2332972E0,3.2294314E0,1.003547E0,2.0642395E0,2.4650488E0,2.3831642E0,6.6548085E0,2.5957031E0,2.4155571E0,2.9417496E0,1.1422712E0,1.2027441E0,3.4075878E0,2.2282705E0,1.001161E0,1.007805E0,1.0564346E0,1.2026286E0,1.1805356E0,4.0607624E0,2.5940459E0,1.2052764E0,1.3904268E0,1.1940124E0,1.2215446E0],"tree_param":{"num_deleted":"0","num_feature":"91","num_nodes":"55","size_leaf_vector":"1"}},{"base_weights":[-7.679395E-3,2.356535E-2,-2.933888E-1,-2.8774193E-2,2.1327063E-1,-4.509361E-1,3.2648813E-2,-7.582407E-2,2.6705196E-1,3.2484066E-1,-8.232042E-2,-1.6333638E-1,-3.4958955E-2,-2.63545E-1,1.8305082E-2,-3.0448746E-2,1.5166576E-1,-4.369204E-2,4.1993564E-1,-4.4508037E-1,1.1332708E-1,4.4488296E-1,-7.892439E-2,5.454734E-1,1.4329801E-1,5.8586862E-2,-1.9305757E-1,-4.8712406E-2,1.03615575E-1,1.8406892E-1,1.1404629E-2,4.1102335E-2,-8.6561315E-2,2.0843461E-1,3.5734687E-2,-3.9820354E-2,9.346626E-2],"categories":[],"categories_nodes":[],"categories_segments":[],"categories_sizes":[],"default_left":[0,0,0,0,0,0,0,0,0,0,0,0,0,0,0,0,0,0,0,0,0,0,0,0,0,0,0,0,0,0,0,0,0,0,0,0,0],"id":44,"left_children":[1,3,5,7,9,11,-1,13,15,17,-1,-1,-1,19,21,-1,-1,-1,23,25,27,29,31,33,35,-1,-1,-1,-1,-1,-1,-1,-1,-1,-1,-1,-1],"loss_changes":[3.9891472E-1,4.0835506E-1,3.2809463E-1,4.7442028E-1,5.7221377E-1,4.157889E-2,0E0,5.1604986E-1,4.643261E-1,4.0491718E-1,0E0,0E0,0E0,7.159369E-1,8.7311476E-1,0E0,0E0,0E0,1.5274525E-1,9.8572993E-1,3.0939576E-1,2.4440628E-1,8.2272696E-1,1.8570602E-1,2.0074019E-1,0E0,0E0,0E0,0E0,0E0,0E0,0E0,0E0,0E0,0E0,0E0,0E0],"parents":[2147483647,0,0,1,1,2,2,3,3,4,4,5,5,7,7,8,8,9,9,13,13,14,14,18,18,19,19,20,20,21,21,22,22,23,23,24,24],"right_children":[2,4,6,8,10,12,-1,14,16,18,-1,-1,-1,20,22,-1,-1,-1,24,26,28,30,32,34,36,-1,-1,-1,-1,-1,-1,-1,-1,-1,-1,-1,-1],"split_conditions":[2E0,1E0,-1.1753619E2,6.8E1,4.226E1,4.5E1,3.2648813E-2,1E0,1E0,1.8328538E-2,-8.232042E-2,-1.6333638E-1,-3.4958955E-2,3.337E1,2.535E1,-3.0448746E-2,1.5166576E-1,-4.369204E-2,-1.1886511E2,2.38E0,1E0,1.6224E2,4.295E3,5.84E2,6.65E1,5.8586862E-2,-1.9305757E-1,-4.8712406E-2,1.03615575E-1,1.8406892E-1,1.1404629E-2,4.1102335E-2,-8.6561315E-2,2.0843461E-1,3.5734687E-2,-3.9820354E-2,9.346626E-2],"split_indices":[13,12,11,2,16,67,0,54,51,68,0,0,0,16,29,0,0,0,11,16,1,33,36,8,29,0,0,0,0,0,0,0,0,0,0,0,0],"split_type":[0,0,0,0,0,0,0,0,0,0,0,0,0,0,0,0,0,0,0,0,0,0,0,0,0,0,0,0,0,0,0,0,0,0,0,0,0],"sum_hessian":[4.2912235E1,3.9509098E1,3.4031346E0,3.1630571E1,7.8785286E0,2.3582819E0,1.0448526E0,2.7931822E1,3.6987488E0,6.6833916E0,1.1951369E0,1.3520505E0,1.0062313E0,8.727273E0,1.9204548E1,1.6788753E0,2.0198736E0,1.0343652E0,5.6490264E0,5.7679343E0,2.959339E0,2.9010563E0,1.6303492E1,3.2172468E0,2.4317796E0,1.368326E0,4.399608E0,1.4897242E0,1.4696147E0,1.6916932E0,1.2093631E0,8.20132E0,8.102173E0,1.9165163E0,1.3007306E0,1.0008888E0,1.4308907E0],"tree_param":{"num_deleted":"0","num_feature":"91","num_nodes":"37","size_leaf_vector":"1"}},{"base_weights":[-1.8888299E-3,2.5509795E-2,-2.5715166E-1,-1.0300304E-2,2.455757E-1,-4.0196282E-1,2.7532535E-2,6.212192E-2,-2.1235897E-1,-4.7755618E-2,3.8747004E-1,-3.2656655E-2,-1.4612103E-1,3.9063624E-1,4.497443E-3,5.154808E-2,-4.386811E-1,7.868173E-3,1.7660752E-1,-7.813034E-3,1.6408394E-1,5.436958E-2,-1.2311088E-1,